<?xml version="1.0"?>
<opencv_storage>
<!-- Created using Computer Vision Toolbox(tm) for MATLAB(R) -->
<!-- Version 9.7.0.1296695 (R2019b) Update 4 -->
<!-- Compatible with OpenCV 3.4 -->
<cascade>
  <stageType>BOOST</stageType>
  <featureType>HOG</featureType>
  <height>34</height>
  <width>32</width>
  <stageParams>
    <boostType>GAB</boostType>
    <minHitRate>9.9500000476837158e-01</minHitRate>
    <maxFalseAlarm>1.0000000149011612e-01</maxFalseAlarm>
    <weightTrimRate>9.4999999999999996e-01</weightTrimRate>
    <maxDepth>1</maxDepth>
    <maxWeakCount>100</maxWeakCount></stageParams>
  <featureParams>
    <maxCatCount>0</maxCatCount>
    <featSize>36</featSize></featureParams>
  <stageNum>10</stageNum>
  <stages>
    <!-- stage 0 -->
    <_>
      <maxWeakCount>12</maxWeakCount>
      <stageThreshold>-1.0048930644989014e+00</stageThreshold>
      <weakClassifiers>
        <_>
          <internalNodes>
            0 -1 327 1.8347734585404396e-02</internalNodes>
          <leafValues>
            7.9141104221343994e-01 -6.1280488967895508e-01</leafValues></_>
        <_>
          <internalNodes>
            0 -1 218 1.8297798931598663e-02</internalNodes>
          <leafValues>
            7.4723863601684570e-01 -4.1150984168052673e-01</leafValues></_>
        <_>
          <internalNodes>
            0 -1 339 1.9244275987148285e-02</internalNodes>
          <leafValues>
            7.3771864175796509e-01 -3.6565369367599487e-01</leafValues></_>
        <_>
          <internalNodes>
            0 -1 335 1.9225347787141800e-02</internalNodes>
          <leafValues>
            8.6624234914779663e-01 -2.2881217300891876e-01</leafValues></_>
        <_>
          <internalNodes>
            0 -1 224 2.0872890949249268e-02</internalNodes>
          <leafValues>
            6.2451630830764771e-01 -2.9545781016349792e-01</leafValues></_>
        <_>
          <internalNodes>
            0 -1 256 4.1843328624963760e-02</internalNodes>
          <leafValues>
            -1.8864972889423370e-01 8.8949757814407349e-01</leafValues></_>
        <_>
          <internalNodes>
            0 -1 336 2.6498168706893921e-02</internalNodes>
          <leafValues>
            5.5039727687835693e-01 -3.4431436657905579e-01</leafValues></_>
        <_>
          <internalNodes>
            0 -1 329 2.3916006088256836e-02</internalNodes>
          <leafValues>
            5.2473449707031250e-01 -4.4449198246002197e-01</leafValues></_>
        <_>
          <internalNodes>
            0 -1 214 1.8189322203397751e-02</internalNodes>
          <leafValues>
            6.0359734296798706e-01 -2.7878594398498535e-01</leafValues></_>
        <_>
          <internalNodes>
            0 -1 314 1.7892198637127876e-02</internalNodes>
          <leafValues>
            6.5952676534652710e-01 -2.9193770885467529e-01</leafValues></_>
        <_>
          <internalNodes>
            0 -1 178 1.5011617913842201e-02</internalNodes>
          <leafValues>
            7.6378387212753296e-01 -2.5052329897880554e-01</leafValues></_>
        <_>
          <internalNodes>
            0 -1 234 1.7155025154352188e-02</internalNodes>
          <leafValues>
            7.6473629474639893e-01 -1.9768136739730835e-01</leafValues></_></weakClassifiers></_>
    <!-- stage 1 -->
    <_>
      <maxWeakCount>22</maxWeakCount>
      <stageThreshold>-9.2015540599822998e-01</stageThreshold>
      <weakClassifiers>
        <_>
          <internalNodes>
            0 -1 328 1.7325587570667267e-02</internalNodes>
          <leafValues>
            4.6961325407028198e-01 -5.6112849712371826e-01</leafValues></_>
        <_>
          <internalNodes>
            0 -1 236 1.8126633018255234e-02</internalNodes>
          <leafValues>
            5.1271814107894897e-01 -3.5014402866363525e-01</leafValues></_>
        <_>
          <internalNodes>
            0 -1 262 1.3803055509924889e-02</internalNodes>
          <leafValues>
            6.3769447803497314e-01 -2.8408148884773254e-01</leafValues></_>
        <_>
          <internalNodes>
            0 -1 38 5.4079048335552216e-02</internalNodes>
          <leafValues>
            -1.1284210532903671e-01 8.6504203081130981e-01</leafValues></_>
        <_>
          <internalNodes>
            0 -1 319 1.4643859118223190e-02</internalNodes>
          <leafValues>
            7.2750300168991089e-01 -1.3895191252231598e-01</leafValues></_>
        <_>
          <internalNodes>
            0 -1 221 1.7102718353271484e-02</internalNodes>
          <leafValues>
            6.1474877595901489e-01 -1.8615859746932983e-01</leafValues></_>
        <_>
          <internalNodes>
            0 -1 225 4.8687152564525604e-02</internalNodes>
          <leafValues>
            -1.8443863093852997e-01 6.2814062833786011e-01</leafValues></_>
        <_>
          <internalNodes>
            0 -1 175 5.5407218635082245e-02</internalNodes>
          <leafValues>
            -1.3371837139129639e-01 8.2288736104965210e-01</leafValues></_>
        <_>
          <internalNodes>
            0 -1 192 1.4333389699459076e-02</internalNodes>
          <leafValues>
            6.4607125520706177e-01 -1.4937536418437958e-01</leafValues></_>
        <_>
          <internalNodes>
            0 -1 204 2.2384457290172577e-02</internalNodes>
          <leafValues>
            3.1247290968894958e-01 -3.7036901712417603e-01</leafValues></_>
        <_>
          <internalNodes>
            0 -1 218 1.4494897797703743e-02</internalNodes>
          <leafValues>
            5.6960153579711914e-01 -1.7321205139160156e-01</leafValues></_>
        <_>
          <internalNodes>
            0 -1 48 2.2693041712045670e-02</internalNodes>
          <leafValues>
            3.0080601572990417e-01 -4.3250286579132080e-01</leafValues></_>
        <_>
          <internalNodes>
            0 -1 162 9.8052918910980225e-03</internalNodes>
          <leafValues>
            8.2715928554534912e-01 -1.3698576390743256e-01</leafValues></_>
        <_>
          <internalNodes>
            0 -1 233 1.6471875831484795e-02</internalNodes>
          <leafValues>
            5.6426125764846802e-01 -1.8127122521400452e-01</leafValues></_>
        <_>
          <internalNodes>
            0 -1 193 3.9666179567575455e-02</internalNodes>
          <leafValues>
            -2.1513652801513672e-01 5.7780098915100098e-01</leafValues></_>
        <_>
          <internalNodes>
            0 -1 253 1.9489306956529617e-02</internalNodes>
          <leafValues>
            5.3583234548568726e-01 -2.3230306804180145e-01</leafValues></_>
        <_>
          <internalNodes>
            0 -1 261 1.4732209965586662e-02</internalNodes>
          <leafValues>
            6.3579571247100830e-01 -1.4312584698200226e-01</leafValues></_>
        <_>
          <internalNodes>
            0 -1 307 1.5941271558403969e-02</internalNodes>
          <leafValues>
            4.3839189410209656e-01 -2.2663776576519012e-01</leafValues></_>
        <_>
          <internalNodes>
            0 -1 13 1.6416732221841812e-02</internalNodes>
          <leafValues>
            5.0211966037750244e-01 -2.1397766470909119e-01</leafValues></_>
        <_>
          <internalNodes>
            0 -1 60 5.4409198462963104e-02</internalNodes>
          <leafValues>
            -1.4166109263896942e-01 6.5824562311172485e-01</leafValues></_>
        <_>
          <internalNodes>
            0 -1 37 4.3889328837394714e-02</internalNodes>
          <leafValues>
            -1.4036689698696136e-01 6.1183911561965942e-01</leafValues></_>
        <_>
          <internalNodes>
            0 -1 201 1.5978477895259857e-02</internalNodes>
          <leafValues>
            5.5877441167831421e-01 -1.8317574262619019e-01</leafValues></_></weakClassifiers></_>
    <!-- stage 2 -->
    <_>
      <maxWeakCount>22</maxWeakCount>
      <stageThreshold>-8.1807625293731689e-01</stageThreshold>
      <weakClassifiers>
        <_>
          <internalNodes>
            0 -1 338 2.2787312045693398e-02</internalNodes>
          <leafValues>
            3.9501780271530151e-01 -7.1375465393066406e-01</leafValues></_>
        <_>
          <internalNodes>
            0 -1 223 2.2048242390155792e-02</internalNodes>
          <leafValues>
            5.2947533130645752e-01 -5.0748383998870850e-01</leafValues></_>
        <_>
          <internalNodes>
            0 -1 219 2.2841595113277435e-02</internalNodes>
          <leafValues>
            4.7954836487770081e-01 -2.9901939630508423e-01</leafValues></_>
        <_>
          <internalNodes>
            0 -1 266 2.2418901324272156e-02</internalNodes>
          <leafValues>
            4.3637886643409729e-01 -3.2680836319923401e-01</leafValues></_>
        <_>
          <internalNodes>
            0 -1 206 5.4846573621034622e-02</internalNodes>
          <leafValues>
            -1.7123213410377502e-01 7.9010981321334839e-01</leafValues></_>
        <_>
          <internalNodes>
            0 -1 245 4.0283583104610443e-02</internalNodes>
          <leafValues>
            -1.2640641629695892e-01 7.0324748754501343e-01</leafValues></_>
        <_>
          <internalNodes>
            0 -1 288 2.5675039738416672e-02</internalNodes>
          <leafValues>
            3.2894840836524963e-01 -3.1007128953933716e-01</leafValues></_>
        <_>
          <internalNodes>
            0 -1 49 1.1442958377301693e-02</internalNodes>
          <leafValues>
            5.4176539182662964e-01 -1.6787515580654144e-01</leafValues></_>
        <_>
          <internalNodes>
            0 -1 180 1.1805242858827114e-02</internalNodes>
          <leafValues>
            6.9486367702484131e-01 -1.5266683697700500e-01</leafValues></_>
        <_>
          <internalNodes>
            0 -1 207 9.6106119453907013e-03</internalNodes>
          <leafValues>
            8.6835956573486328e-01 -8.0049946904182434e-02</leafValues></_>
        <_>
          <internalNodes>
            0 -1 52 4.1894000023603439e-02</internalNodes>
          <leafValues>
            -1.6852900385856628e-01 5.0365048646926880e-01</leafValues></_>
        <_>
          <internalNodes>
            0 -1 237 1.3648491352796555e-02</internalNodes>
          <leafValues>
            5.9598439931869507e-01 -1.3983237743377686e-01</leafValues></_>
        <_>
          <internalNodes>
            0 -1 61 1.2817081063985825e-02</internalNodes>
          <leafValues>
            6.0208672285079956e-01 -1.4532649517059326e-01</leafValues></_>
        <_>
          <internalNodes>
            0 -1 41 1.2985810637474060e-02</internalNodes>
          <leafValues>
            6.3724595308303833e-01 -1.4392958581447601e-01</leafValues></_>
        <_>
          <internalNodes>
            0 -1 297 4.3603911995887756e-02</internalNodes>
          <leafValues>
            -1.0506810247898102e-01 7.3756861686706543e-01</leafValues></_>
        <_>
          <internalNodes>
            0 -1 302 3.7342667579650879e-02</internalNodes>
          <leafValues>
            -1.5246193110942841e-01 5.4632204771041870e-01</leafValues></_>
        <_>
          <internalNodes>
            0 -1 323 1.7452329397201538e-02</internalNodes>
          <leafValues>
            4.9813899397850037e-01 -1.9433507323265076e-01</leafValues></_>
        <_>
          <internalNodes>
            0 -1 186 5.9609938412904739e-02</internalNodes>
          <leafValues>
            -1.4669875800609589e-01 6.9200277328491211e-01</leafValues></_>
        <_>
          <internalNodes>
            0 -1 327 1.4926670119166374e-02</internalNodes>
          <leafValues>
            5.1104795932769775e-01 -1.9026254117488861e-01</leafValues></_>
        <_>
          <internalNodes>
            0 -1 74 2.5511242449283600e-02</internalNodes>
          <leafValues>
            3.4074553847312927e-01 -2.5414532423019409e-01</leafValues></_>
        <_>
          <internalNodes>
            0 -1 3 2.1915506571531296e-02</internalNodes>
          <leafValues>
            2.8880342841148376e-01 -2.9689976572990417e-01</leafValues></_>
        <_>
          <internalNodes>
            0 -1 50 1.4920745044946671e-02</internalNodes>
          <leafValues>
            6.2607961893081665e-01 -1.4941315352916718e-01</leafValues></_></weakClassifiers></_>
    <!-- stage 3 -->
    <_>
      <maxWeakCount>30</maxWeakCount>
      <stageThreshold>-6.6004323959350586e-01</stageThreshold>
      <weakClassifiers>
        <_>
          <internalNodes>
            0 -1 239 2.2297859191894531e-02</internalNodes>
          <leafValues>
            -7.7058821916580200e-01 -2.2964509204030037e-02</leafValues></_>
        <_>
          <internalNodes>
            0 -1 188 2.0940978080034256e-02</internalNodes>
          <leafValues>
            -5.7308542728424072e-01 2.8798848390579224e-01</leafValues></_>
        <_>
          <internalNodes>
            0 -1 199 1.4971893280744553e-02</internalNodes>
          <leafValues>
            -6.1723810434341431e-01 2.1455234289169312e-01</leafValues></_>
        <_>
          <internalNodes>
            0 -1 279 1.4381330460309982e-02</internalNodes>
          <leafValues>
            -6.8614828586578369e-01 1.9680745899677277e-01</leafValues></_>
        <_>
          <internalNodes>
            0 -1 244 2.3487530648708344e-02</internalNodes>
          <leafValues>
            2.9551586508750916e-01 -4.3382662534713745e-01</leafValues></_>
        <_>
          <internalNodes>
            0 -1 82 7.1390960365533829e-03</internalNodes>
          <leafValues>
            -8.5636281967163086e-01 1.0301348567008972e-01</leafValues></_>
        <_>
          <internalNodes>
            0 -1 80 2.1504046395421028e-02</internalNodes>
          <leafValues>
            -3.8606563210487366e-01 2.6983538269996643e-01</leafValues></_>
        <_>
          <internalNodes>
            0 -1 226 2.1969877183437347e-02</internalNodes>
          <leafValues>
            -4.7300288081169128e-01 2.1581643819808960e-01</leafValues></_>
        <_>
          <internalNodes>
            0 -1 333 1.0650761425495148e-02</internalNodes>
          <leafValues>
            -8.5781073570251465e-01 1.1144683510065079e-01</leafValues></_>
        <_>
          <internalNodes>
            0 -1 195 2.6280794292688370e-02</internalNodes>
          <leafValues>
            -3.0680429935455322e-01 2.6645269989967346e-01</leafValues></_>
        <_>
          <internalNodes>
            0 -1 29 3.5669721662998199e-02</internalNodes>
          <leafValues>
            1.8525221943855286e-01 -4.6368667483329773e-01</leafValues></_>
        <_>
          <internalNodes>
            0 -1 269 1.5818133950233459e-02</internalNodes>
          <leafValues>
            -5.0261783599853516e-01 1.9491222500801086e-01</leafValues></_>
        <_>
          <internalNodes>
            0 -1 4 3.5340856760740280e-02</internalNodes>
          <leafValues>
            1.4048774540424347e-01 -5.2437257766723633e-01</leafValues></_>
        <_>
          <internalNodes>
            0 -1 102 1.0765749029815197e-02</internalNodes>
          <leafValues>
            -5.6677699089050293e-01 1.1347882449626923e-01</leafValues></_>
        <_>
          <internalNodes>
            0 -1 0 2.0088132470846176e-02</internalNodes>
          <leafValues>
            -3.5661751031875610e-01 2.3980784416198730e-01</leafValues></_>
        <_>
          <internalNodes>
            0 -1 89 2.0117934793233871e-02</internalNodes>
          <leafValues>
            2.7318313717842102e-01 -2.7099475264549255e-01</leafValues></_>
        <_>
          <internalNodes>
            0 -1 220 3.4291934221982956e-02</internalNodes>
          <leafValues>
            1.8644660711288452e-01 -4.0081870555877686e-01</leafValues></_>
        <_>
          <internalNodes>
            0 -1 17 3.8614004850387573e-02</internalNodes>
          <leafValues>
            1.2768219411373138e-01 -5.1927423477172852e-01</leafValues></_>
        <_>
          <internalNodes>
            0 -1 294 1.4727866277098656e-02</internalNodes>
          <leafValues>
            -5.9585976600646973e-01 1.1201581358909607e-01</leafValues></_>
        <_>
          <internalNodes>
            0 -1 322 2.5863243266940117e-02</internalNodes>
          <leafValues>
            1.9760954380035400e-01 -3.2632228732109070e-01</leafValues></_>
        <_>
          <internalNodes>
            0 -1 328 2.8855465352535248e-02</internalNodes>
          <leafValues>
            1.3191501796245575e-01 -4.9555584788322449e-01</leafValues></_>
        <_>
          <internalNodes>
            0 -1 183 1.4399113133549690e-02</internalNodes>
          <leafValues>
            -5.0596725940704346e-01 1.4105121791362762e-01</leafValues></_>
        <_>
          <internalNodes>
            0 -1 167 1.1648588813841343e-02</internalNodes>
          <leafValues>
            -4.6395719051361084e-01 1.5925537049770355e-01</leafValues></_>
        <_>
          <internalNodes>
            0 -1 196 9.5674209296703339e-03</internalNodes>
          <leafValues>
            -6.6094434261322021e-01 9.6873328089714050e-02</leafValues></_>
        <_>
          <internalNodes>
            0 -1 18 5.4278844036161900e-03</internalNodes>
          <leafValues>
            -7.8053689002990723e-01 7.1342989802360535e-02</leafValues></_>
        <_>
          <internalNodes>
            0 -1 227 3.3452786505222321e-02</internalNodes>
          <leafValues>
            -2.0257622003555298e-01 3.6845231056213379e-01</leafValues></_>
        <_>
          <internalNodes>
            0 -1 172 1.4451565220952034e-02</internalNodes>
          <leafValues>
            3.2027184963226318e-01 -2.1427622437477112e-01</leafValues></_>
        <_>
          <internalNodes>
            0 -1 67 3.3617436885833740e-02</internalNodes>
          <leafValues>
            -2.0642510056495667e-01 3.4442993998527527e-01</leafValues></_>
        <_>
          <internalNodes>
            0 -1 35 5.7940937578678131e-02</internalNodes>
          <leafValues>
            8.9317731559276581e-02 -8.0869150161743164e-01</leafValues></_>
        <_>
          <internalNodes>
            0 -1 201 8.8329501450061798e-03</internalNodes>
          <leafValues>
            5.0586575269699097e-01 -1.3992138206958771e-01</leafValues></_></weakClassifiers></_>
    <!-- stage 4 -->
    <_>
      <maxWeakCount>52</maxWeakCount>
      <stageThreshold>-6.3266360759735107e-01</stageThreshold>
      <weakClassifiers>
        <_>
          <internalNodes>
            0 -1 326 2.0655933767557144e-02</internalNodes>
          <leafValues>
            -7.5527423620223999e-01 -1.6151203215122223e-01</leafValues></_>
        <_>
          <internalNodes>
            0 -1 76 7.7233794145286083e-03</internalNodes>
          <leafValues>
            -6.0686665773391724e-01 8.8162325322628021e-02</leafValues></_>
        <_>
          <internalNodes>
            0 -1 37 2.9021654278039932e-02</internalNodes>
          <leafValues>
            -2.3941811919212341e-01 2.5316861271858215e-01</leafValues></_>
        <_>
          <internalNodes>
            0 -1 32 6.1744702979922295e-03</internalNodes>
          <leafValues>
            -8.0415421724319458e-01 6.8405255675315857e-02</leafValues></_>
        <_>
          <internalNodes>
            0 -1 66 5.1815226674079895e-02</internalNodes>
          <leafValues>
            8.2688599824905396e-02 -7.5190764665603638e-01</leafValues></_>
        <_>
          <internalNodes>
            0 -1 320 2.8633506968617439e-02</internalNodes>
          <leafValues>
            -2.7705231308937073e-01 1.8165828287601471e-01</leafValues></_>
        <_>
          <internalNodes>
            0 -1 182 1.2579502537846565e-02</internalNodes>
          <leafValues>
            -5.0762647390365601e-01 1.1019701510667801e-01</leafValues></_>
        <_>
          <internalNodes>
            0 -1 22 1.8578244373202324e-02</internalNodes>
          <leafValues>
            -2.9793334007263184e-01 1.5688282251358032e-01</leafValues></_>
        <_>
          <internalNodes>
            0 -1 173 9.0727983042597771e-03</internalNodes>
          <leafValues>
            -4.0805834531784058e-01 1.0361174494028091e-01</leafValues></_>
        <_>
          <internalNodes>
            0 -1 175 3.4970708191394806e-02</internalNodes>
          <leafValues>
            -1.8179737031459808e-01 2.6541608572006226e-01</leafValues></_>
        <_>
          <internalNodes>
            0 -1 304 3.3200003206729889e-02</internalNodes>
          <leafValues>
            1.2888595461845398e-01 -3.4941834211349487e-01</leafValues></_>
        <_>
          <internalNodes>
            0 -1 48 3.4271165728569031e-02</internalNodes>
          <leafValues>
            7.9792931675910950e-02 -5.3251975774765015e-01</leafValues></_>
        <_>
          <internalNodes>
            0 -1 119 7.0035005919635296e-03</internalNodes>
          <leafValues>
            -6.9875228404998779e-01 5.7853255420923233e-02</leafValues></_>
        <_>
          <internalNodes>
            0 -1 312 3.5393789410591125e-02</internalNodes>
          <leafValues>
            1.1022407561540604e-01 -3.5832828283309937e-01</leafValues></_>
        <_>
          <internalNodes>
            0 -1 251 3.8124710321426392e-02</internalNodes>
          <leafValues>
            9.9283471703529358e-02 -3.9181986451148987e-01</leafValues></_>
        <_>
          <internalNodes>
            0 -1 103 1.2694768607616425e-02</internalNodes>
          <leafValues>
            -4.6113729476928711e-01 1.0513091832399368e-01</leafValues></_>
        <_>
          <internalNodes>
            0 -1 280 3.0746165663003922e-02</internalNodes>
          <leafValues>
            -2.5888407230377197e-01 1.6160145401954651e-01</leafValues></_>
        <_>
          <internalNodes>
            0 -1 249 3.4169584512710571e-02</internalNodes>
          <leafValues>
            1.0455099493265152e-01 -3.9589169621467590e-01</leafValues></_>
        <_>
          <internalNodes>
            0 -1 330 8.1292614340782166e-03</internalNodes>
          <leafValues>
            -7.9265886545181274e-01 5.1804877817630768e-02</leafValues></_>
        <_>
          <internalNodes>
            0 -1 25 4.0295780636370182e-03</internalNodes>
          <leafValues>
            6.7603093385696411e-01 -8.2721576094627380e-02</leafValues></_>
        <_>
          <internalNodes>
            0 -1 137 6.5663374960422516e-02</internalNodes>
          <leafValues>
            7.5635030865669250e-02 -5.9150445461273193e-01</leafValues></_>
        <_>
          <internalNodes>
            0 -1 81 1.6684664413332939e-02</internalNodes>
          <leafValues>
            -4.5734328031539917e-01 1.0167504101991653e-01</leafValues></_>
        <_>
          <internalNodes>
            0 -1 209 3.5359218716621399e-02</internalNodes>
          <leafValues>
            -9.1259546577930450e-02 4.7476652264595032e-01</leafValues></_>
        <_>
          <internalNodes>
            0 -1 43 3.9998933672904968e-02</internalNodes>
          <leafValues>
            1.0600983351469040e-01 -4.4012638926506042e-01</leafValues></_>
        <_>
          <internalNodes>
            0 -1 129 5.8814259245991707e-03</internalNodes>
          <leafValues>
            -7.8486818075180054e-01 4.7344777733087540e-02</leafValues></_>
        <_>
          <internalNodes>
            0 -1 119 3.3240377902984619e-02</internalNodes>
          <leafValues>
            1.1425942182540894e-01 -3.2467162609100342e-01</leafValues></_>
        <_>
          <internalNodes>
            0 -1 141 1.6023198142647743e-02</internalNodes>
          <leafValues>
            -2.7156698703765869e-01 1.6116769611835480e-01</leafValues></_>
        <_>
          <internalNodes>
            0 -1 49 2.5044828653335571e-02</internalNodes>
          <leafValues>
            1.5147057175636292e-01 -3.0139976739883423e-01</leafValues></_>
        <_>
          <internalNodes>
            0 -1 15 7.1902619674801826e-03</internalNodes>
          <leafValues>
            -5.2223855257034302e-01 7.6133623719215393e-02</leafValues></_>
        <_>
          <internalNodes>
            0 -1 44 4.0604919195175171e-02</internalNodes>
          <leafValues>
            1.1221815645694733e-01 -3.9580377936363220e-01</leafValues></_>
        <_>
          <internalNodes>
            0 -1 211 5.2979175001382828e-02</internalNodes>
          <leafValues>
            -8.2193940877914429e-02 4.8323753476142883e-01</leafValues></_>
        <_>
          <internalNodes>
            0 -1 28 6.4864950254559517e-03</internalNodes>
          <leafValues>
            -5.7020932435989380e-01 8.2984447479248047e-02</leafValues></_>
        <_>
          <internalNodes>
            0 -1 299 2.1829660981893539e-02</internalNodes>
          <leafValues>
            -1.6633477807044983e-01 2.3885527253150940e-01</leafValues></_>
        <_>
          <internalNodes>
            0 -1 155 4.9469955265522003e-03</internalNodes>
          <leafValues>
            5.6334853172302246e-01 -7.7463001012802124e-02</leafValues></_>
        <_>
          <internalNodes>
            0 -1 193 4.2922347784042358e-02</internalNodes>
          <leafValues>
            -1.3505771756172180e-01 3.2184830307960510e-01</leafValues></_>
        <_>
          <internalNodes>
            0 -1 158 1.2172549962997437e-02</internalNodes>
          <leafValues>
            -3.7963777780532837e-01 1.1285484582185745e-01</leafValues></_>
        <_>
          <internalNodes>
            0 -1 38 3.4396249800920486e-02</internalNodes>
          <leafValues>
            -1.7897851765155792e-01 2.6705530285835266e-01</leafValues></_>
        <_>
          <internalNodes>
            0 -1 37 5.5699483491480350e-03</internalNodes>
          <leafValues>
            6.6278147697448730e-01 -6.9280564785003662e-02</leafValues></_>
        <_>
          <internalNodes>
            0 -1 150 2.4933163076639175e-03</internalNodes>
          <leafValues>
            -9.4981169700622559e-01 4.5175805687904358e-02</leafValues></_>
        <_>
          <internalNodes>
            0 -1 282 2.4639222770929337e-02</internalNodes>
          <leafValues>
            1.5403941273689270e-01 -2.4225974082946777e-01</leafValues></_>
        <_>
          <internalNodes>
            0 -1 94 3.8011252880096436e-02</internalNodes>
          <leafValues>
            1.2229333817958832e-01 -3.1006249785423279e-01</leafValues></_>
        <_>
          <internalNodes>
            0 -1 324 1.2310618534684181e-02</internalNodes>
          <leafValues>
            -8.4338206052780151e-01 4.4050149619579315e-02</leafValues></_>
        <_>
          <internalNodes>
            0 -1 90 4.6157430857419968e-02</internalNodes>
          <leafValues>
            -9.7652703523635864e-02 4.8947486281394958e-01</leafValues></_>
        <_>
          <internalNodes>
            0 -1 200 2.1897925063967705e-02</internalNodes>
          <leafValues>
            -2.4310058355331421e-01 1.6186311841011047e-01</leafValues></_>
        <_>
          <internalNodes>
            0 -1 146 2.0195513963699341e-02</internalNodes>
          <leafValues>
            2.7921384572982788e-01 -1.5668226778507233e-01</leafValues></_>
        <_>
          <internalNodes>
            0 -1 276 6.7760525271296501e-03</internalNodes>
          <leafValues>
            -8.1675934791564941e-01 4.7016106545925140e-02</leafValues></_>
        <_>
          <internalNodes>
            0 -1 277 2.5064533576369286e-02</internalNodes>
          <leafValues>
            1.5794578194618225e-01 -2.5423428416252136e-01</leafValues></_>
        <_>
          <internalNodes>
            0 -1 109 4.8554718494415283e-02</internalNodes>
          <leafValues>
            -9.4304673373699188e-02 4.6131825447082520e-01</leafValues></_>
        <_>
          <internalNodes>
            0 -1 257 6.8413227796554565e-02</internalNodes>
          <leafValues>
            5.6597407907247543e-02 -8.0988341569900513e-01</leafValues></_>
        <_>
          <internalNodes>
            0 -1 16 1.4725157991051674e-02</internalNodes>
          <leafValues>
            -3.5714566707611084e-01 1.0813362896442413e-01</leafValues></_>
        <_>
          <internalNodes>
            0 -1 65 2.1270001307129860e-02</internalNodes>
          <leafValues>
            -1.8114426732063293e-01 2.2140787541866302e-01</leafValues></_>
        <_>
          <internalNodes>
            0 -1 107 4.7954268753528595e-02</internalNodes>
          <leafValues>
            6.4094021916389465e-02 -6.3044172525405884e-01</leafValues></_></weakClassifiers></_>
    <!-- stage 5 -->
    <_>
      <maxWeakCount>59</maxWeakCount>
      <stageThreshold>-5.2979099750518799e-01</stageThreshold>
      <weakClassifiers>
        <_>
          <internalNodes>
            0 -1 318 4.8551082611083984e-02</internalNodes>
          <leafValues>
            -4.5098039507865906e-01 1.6666667163372040e-01</leafValues></_>
        <_>
          <internalNodes>
            0 -1 212 2.3504272103309631e-02</internalNodes>
          <leafValues>
            -4.1555112600326538e-01 1.2509235739707947e-01</leafValues></_>
        <_>
          <internalNodes>
            0 -1 290 1.1215848848223686e-02</internalNodes>
          <leafValues>
            -6.7197793722152710e-01 8.3796754479408264e-02</leafValues></_>
        <_>
          <internalNodes>
            0 -1 289 1.5334080904722214e-02</internalNodes>
          <leafValues>
            -3.5040661692619324e-01 1.4891728758811951e-01</leafValues></_>
        <_>
          <internalNodes>
            0 -1 111 2.5286760181188583e-02</internalNodes>
          <leafValues>
            -2.4647045135498047e-01 1.7970590293407440e-01</leafValues></_>
        <_>
          <internalNodes>
            0 -1 195 2.6277661323547363e-02</internalNodes>
          <leafValues>
            -2.3892487585544586e-01 2.0367459952831268e-01</leafValues></_>
        <_>
          <internalNodes>
            0 -1 20 3.2622784376144409e-02</internalNodes>
          <leafValues>
            1.2154635787010193e-01 -3.2546004652976990e-01</leafValues></_>
        <_>
          <internalNodes>
            0 -1 310 3.5166189074516296e-02</internalNodes>
          <leafValues>
            8.7092570960521698e-02 -4.6271502971649170e-01</leafValues></_>
        <_>
          <internalNodes>
            0 -1 260 9.1466307640075684e-03</internalNodes>
          <leafValues>
            -6.2294238805770874e-01 6.5720573067665100e-02</leafValues></_>
        <_>
          <internalNodes>
            0 -1 99 7.3826080188155174e-03</internalNodes>
          <leafValues>
            -8.8947117328643799e-01 3.2677970826625824e-02</leafValues></_>
        <_>
          <internalNodes>
            0 -1 154 2.8925333172082901e-02</internalNodes>
          <leafValues>
            1.2268817424774170e-01 -2.8081411123275757e-01</leafValues></_>
        <_>
          <internalNodes>
            0 -1 148 6.2660321593284607e-02</internalNodes>
          <leafValues>
            2.9415272176265717e-02 -9.4054979085922241e-01</leafValues></_>
        <_>
          <internalNodes>
            0 -1 186 1.5821173787117004e-02</internalNodes>
          <leafValues>
            -3.7758517265319824e-01 9.4371728599071503e-02</leafValues></_>
        <_>
          <internalNodes>
            0 -1 255 5.3097814321517944e-02</internalNodes>
          <leafValues>
            7.2057560086250305e-02 -5.2843201160430908e-01</leafValues></_>
        <_>
          <internalNodes>
            0 -1 54 2.3288801312446594e-02</internalNodes>
          <leafValues>
            1.8322998285293579e-01 -2.0578816533088684e-01</leafValues></_>
        <_>
          <internalNodes>
            0 -1 291 2.5154529139399529e-02</internalNodes>
          <leafValues>
            -2.1164059638977051e-01 1.5770325064659119e-01</leafValues></_>
        <_>
          <internalNodes>
            0 -1 27 6.6716805100440979e-02</internalNodes>
          <leafValues>
            -7.4203066527843475e-02 5.7506155967712402e-01</leafValues></_>
        <_>
          <internalNodes>
            0 -1 134 5.9316549450159073e-03</internalNodes>
          <leafValues>
            -8.8053709268569946e-01 4.2984686791896820e-02</leafValues></_>
        <_>
          <internalNodes>
            0 -1 144 9.4048790633678436e-03</internalNodes>
          <leafValues>
            -5.6085258722305298e-01 5.0376586616039276e-02</leafValues></_>
        <_>
          <internalNodes>
            0 -1 93 7.9418703913688660e-02</internalNodes>
          <leafValues>
            3.5365752875804901e-02 -8.3486145734786987e-01</leafValues></_>
        <_>
          <internalNodes>
            0 -1 98 3.8641996681690216e-02</internalNodes>
          <leafValues>
            -1.4402091503143311e-01 2.3709461092948914e-01</leafValues></_>
        <_>
          <internalNodes>
            0 -1 42 2.2398145869374275e-02</internalNodes>
          <leafValues>
            1.8050350248813629e-01 -1.9792315363883972e-01</leafValues></_>
        <_>
          <internalNodes>
            0 -1 317 1.3678114861249924e-02</internalNodes>
          <leafValues>
            -5.1999324560165405e-01 7.5597524642944336e-02</leafValues></_>
        <_>
          <internalNodes>
            0 -1 213 4.3186753988265991e-02</internalNodes>
          <leafValues>
            1.1604572087526321e-01 -3.7071222066879272e-01</leafValues></_>
        <_>
          <internalNodes>
            0 -1 248 1.4521742239594460e-02</internalNodes>
          <leafValues>
            3.1593847274780273e-01 -1.1555854231119156e-01</leafValues></_>
        <_>
          <internalNodes>
            0 -1 143 6.1668030917644501e-02</internalNodes>
          <leafValues>
            5.4928313940763474e-02 -6.9557750225067139e-01</leafValues></_>
        <_>
          <internalNodes>
            0 -1 104 3.3941891044378281e-02</internalNodes>
          <leafValues>
            1.0620281100273132e-01 -3.3156812191009521e-01</leafValues></_>
        <_>
          <internalNodes>
            0 -1 185 5.0311200320720673e-02</internalNodes>
          <leafValues>
            8.2602091133594513e-02 -3.9248901605606079e-01</leafValues></_>
        <_>
          <internalNodes>
            0 -1 138 5.0737811252474785e-03</internalNodes>
          <leafValues>
            -9.1197597980499268e-01 3.0505809932947159e-02</leafValues></_>
        <_>
          <internalNodes>
            0 -1 26 1.9018825143575668e-02</internalNodes>
          <leafValues>
            2.0733371376991272e-01 -1.6236132383346558e-01</leafValues></_>
        <_>
          <internalNodes>
            0 -1 313 1.1665344238281250e-02</internalNodes>
          <leafValues>
            5.7195246219635010e-01 -7.0168338716030121e-02</leafValues></_>
        <_>
          <internalNodes>
            0 -1 231 1.9722670316696167e-02</internalNodes>
          <leafValues>
            1.6805776953697205e-01 -2.0795384049415588e-01</leafValues></_>
        <_>
          <internalNodes>
            0 -1 34 3.0516739934682846e-02</internalNodes>
          <leafValues>
            -9.7380325198173523e-02 3.6907377839088440e-01</leafValues></_>
        <_>
          <internalNodes>
            0 -1 23 1.9570097327232361e-02</internalNodes>
          <leafValues>
            -2.5427162647247314e-01 1.3256140053272247e-01</leafValues></_>
        <_>
          <internalNodes>
            0 -1 72 4.2814288288354874e-02</internalNodes>
          <leafValues>
            1.0125171393156052e-01 -3.6720764636993408e-01</leafValues></_>
        <_>
          <internalNodes>
            0 -1 40 5.1857180893421173e-02</internalNodes>
          <leafValues>
            5.0890605896711349e-02 -7.1790456771850586e-01</leafValues></_>
        <_>
          <internalNodes>
            0 -1 290 1.4571599662303925e-02</internalNodes>
          <leafValues>
            -4.3340766429901123e-01 7.8914366662502289e-02</leafValues></_>
        <_>
          <internalNodes>
            0 -1 168 4.2350497096776962e-03</internalNodes>
          <leafValues>
            -6.1052912473678589e-01 5.6334715336561203e-02</leafValues></_>
        <_>
          <internalNodes>
            0 -1 165 5.6896295398473740e-02</internalNodes>
          <leafValues>
            -7.2194740176200867e-02 4.9394911527633667e-01</leafValues></_>
        <_>
          <internalNodes>
            0 -1 249 1.2431838549673557e-02</internalNodes>
          <leafValues>
            -3.8441875576972961e-01 8.2147404551506042e-02</leafValues></_>
        <_>
          <internalNodes>
            0 -1 270 1.7207827419042587e-02</internalNodes>
          <leafValues>
            3.4993854165077209e-01 -1.0362502187490463e-01</leafValues></_>
        <_>
          <internalNodes>
            0 -1 140 2.3544266819953918e-02</internalNodes>
          <leafValues>
            1.6674086451530457e-01 -2.1288159489631653e-01</leafValues></_>
        <_>
          <internalNodes>
            0 -1 172 1.4601463451981544e-02</internalNodes>
          <leafValues>
            2.2977279126644135e-01 -1.4317755401134491e-01</leafValues></_>
        <_>
          <internalNodes>
            0 -1 320 2.8628019616007805e-02</internalNodes>
          <leafValues>
            -2.2424268722534180e-01 1.5617299079895020e-01</leafValues></_>
        <_>
          <internalNodes>
            0 -1 60 6.3629094511270523e-03</internalNodes>
          <leafValues>
            -7.5280982255935669e-01 4.7282122075557709e-02</leafValues></_>
        <_>
          <internalNodes>
            0 -1 121 1.0052897967398167e-02</internalNodes>
          <leafValues>
            -3.9500078558921814e-01 6.9244548678398132e-02</leafValues></_>
        <_>
          <internalNodes>
            0 -1 19 1.6421640291810036e-02</internalNodes>
          <leafValues>
            2.8803655505180359e-01 -1.3035349547863007e-01</leafValues></_>
        <_>
          <internalNodes>
            0 -1 298 4.2346574366092682e-02</internalNodes>
          <leafValues>
            5.5350024253129959e-02 -5.9436523914337158e-01</leafValues></_>
        <_>
          <internalNodes>
            0 -1 156 1.7939129844307899e-02</internalNodes>
          <leafValues>
            -3.0865666270256042e-01 1.1740220338106155e-01</leafValues></_>
        <_>
          <internalNodes>
            0 -1 101 2.4065691977739334e-02</internalNodes>
          <leafValues>
            -2.1828806400299072e-01 1.6800056397914886e-01</leafValues></_>
        <_>
          <internalNodes>
            0 -1 207 1.5650421380996704e-02</internalNodes>
          <leafValues>
            2.8808268904685974e-01 -1.3730688393115997e-01</leafValues></_>
        <_>
          <internalNodes>
            0 -1 12 4.2175807058811188e-02</internalNodes>
          <leafValues>
            8.9278832077980042e-02 -4.1735303401947021e-01</leafValues></_>
        <_>
          <internalNodes>
            0 -1 39 2.0690616220235825e-02</internalNodes>
          <leafValues>
            -2.2951498627662659e-01 1.5786573290824890e-01</leafValues></_>
        <_>
          <internalNodes>
            0 -1 334 1.0137639008462429e-02</internalNodes>
          <leafValues>
            6.5122199058532715e-01 -5.4333448410034180e-02</leafValues></_>
        <_>
          <internalNodes>
            0 -1 170 6.1639390885829926e-02</internalNodes>
          <leafValues>
            5.4344728589057922e-02 -6.7627984285354614e-01</leafValues></_>
        <_>
          <internalNodes>
            0 -1 222 6.2104694545269012e-02</internalNodes>
          <leafValues>
            -5.5003151297569275e-02 7.3550009727478027e-01</leafValues></_>
        <_>
          <internalNodes>
            0 -1 239 1.2495684437453747e-02</internalNodes>
          <leafValues>
            -8.6243027448654175e-01 4.4228393584489822e-02</leafValues></_>
        <_>
          <internalNodes>
            0 -1 166 6.3161756843328476e-03</internalNodes>
          <leafValues>
            -7.4872273206710815e-01 3.3178653568029404e-02</leafValues></_>
        <_>
          <internalNodes>
            0 -1 135 2.1575752645730972e-02</internalNodes>
          <leafValues>
            2.3222596943378448e-01 -1.7626802623271942e-01</leafValues></_></weakClassifiers></_>
    <!-- stage 6 -->
    <_>
      <maxWeakCount>59</maxWeakCount>
      <stageThreshold>-4.6706727147102356e-01</stageThreshold>
      <weakClassifiers>
        <_>
          <internalNodes>
            0 -1 327 1.6658203676342964e-02</internalNodes>
          <leafValues>
            5.6451611220836639e-02 -5.0262695550918579e-01</leafValues></_>
        <_>
          <internalNodes>
            0 -1 243 2.5966417044401169e-02</internalNodes>
          <leafValues>
            1.3022489845752716e-01 -3.7666133046150208e-01</leafValues></_>
        <_>
          <internalNodes>
            0 -1 216 1.3725594617426395e-02</internalNodes>
          <leafValues>
            -4.9127310514450073e-01 1.0240541398525238e-01</leafValues></_>
        <_>
          <internalNodes>
            0 -1 230 3.2577484846115112e-02</internalNodes>
          <leafValues>
            -1.7873255908489227e-01 3.1225979328155518e-01</leafValues></_>
        <_>
          <internalNodes>
            0 -1 330 1.6024738550186157e-02</internalNodes>
          <leafValues>
            -2.4863830208778381e-01 1.9612543284893036e-01</leafValues></_>
        <_>
          <internalNodes>
            0 -1 235 1.9858021289110184e-02</internalNodes>
          <leafValues>
            -3.5437986254692078e-01 1.2353983521461487e-01</leafValues></_>
        <_>
          <internalNodes>
            0 -1 136 4.3175023049116135e-02</internalNodes>
          <leafValues>
            1.1016694456338882e-01 -4.3697977066040039e-01</leafValues></_>
        <_>
          <internalNodes>
            0 -1 84 4.2040526866912842e-02</internalNodes>
          <leafValues>
            7.8728042542934418e-02 -4.5821699500083923e-01</leafValues></_>
        <_>
          <internalNodes>
            0 -1 339 1.4560133218765259e-02</internalNodes>
          <leafValues>
            2.7722358703613281e-01 -1.3793537020683289e-01</leafValues></_>
        <_>
          <internalNodes>
            0 -1 287 2.3214280605316162e-02</internalNodes>
          <leafValues>
            -3.4989407658576965e-01 1.2079805135726929e-01</leafValues></_>
        <_>
          <internalNodes>
            0 -1 58 8.9347930625081062e-03</internalNodes>
          <leafValues>
            -5.7488203048706055e-01 7.4261911213397980e-02</leafValues></_>
        <_>
          <internalNodes>
            0 -1 5 1.4703128486871719e-02</internalNodes>
          <leafValues>
            -3.5549890995025635e-01 9.7721889615058899e-02</leafValues></_>
        <_>
          <internalNodes>
            0 -1 51 5.0409253686666489e-02</internalNodes>
          <leafValues>
            -1.2496913969516754e-01 3.0101644992828369e-01</leafValues></_>
        <_>
          <internalNodes>
            0 -1 179 9.7507769241929054e-03</internalNodes>
          <leafValues>
            6.0172456502914429e-01 -6.0524880886077881e-02</leafValues></_>
        <_>
          <internalNodes>
            0 -1 269 8.3785587921738625e-03</internalNodes>
          <leafValues>
            -5.9689694643020630e-01 6.2508903443813324e-02</leafValues></_>
        <_>
          <internalNodes>
            0 -1 227 2.8099292889237404e-02</internalNodes>
          <leafValues>
            -1.8970073759555817e-01 1.7095589637756348e-01</leafValues></_>
        <_>
          <internalNodes>
            0 -1 70 1.1035773903131485e-02</internalNodes>
          <leafValues>
            -4.8247987031936646e-01 6.0417406260967255e-02</leafValues></_>
        <_>
          <internalNodes>
            0 -1 278 3.3953860402107239e-02</internalNodes>
          <leafValues>
            -1.0774186253547668e-01 3.3753132820129395e-01</leafValues></_>
        <_>
          <internalNodes>
            0 -1 265 2.1736774593591690e-02</internalNodes>
          <leafValues>
            -1.9703441858291626e-01 2.0999486744403839e-01</leafValues></_>
        <_>
          <internalNodes>
            0 -1 241 4.0580309927463531e-02</internalNodes>
          <leafValues>
            1.1595404148101807e-01 -3.3682405948638916e-01</leafValues></_>
        <_>
          <internalNodes>
            0 -1 128 5.8323360979557037e-02</internalNodes>
          <leafValues>
            -1.0569606721401215e-01 3.7797462940216064e-01</leafValues></_>
        <_>
          <internalNodes>
            0 -1 97 2.8936052694916725e-02</internalNodes>
          <leafValues>
            1.4414191246032715e-01 -2.3097266256809235e-01</leafValues></_>
        <_>
          <internalNodes>
            0 -1 36 1.1973118409514427e-02</internalNodes>
          <leafValues>
            3.7514665722846985e-01 -8.5912980139255524e-02</leafValues></_>
        <_>
          <internalNodes>
            0 -1 318 1.8198279663920403e-02</internalNodes>
          <leafValues>
            -3.9049264788627625e-01 9.0031072497367859e-02</leafValues></_>
        <_>
          <internalNodes>
            0 -1 173 5.3566798567771912e-02</internalNodes>
          <leafValues>
            -6.2502279877662659e-02 5.8943861722946167e-01</leafValues></_>
        <_>
          <internalNodes>
            0 -1 174 3.1804829835891724e-02</internalNodes>
          <leafValues>
            1.2037020921707153e-01 -2.9671883583068848e-01</leafValues></_>
        <_>
          <internalNodes>
            0 -1 254 6.1345621943473816e-03</internalNodes>
          <leafValues>
            -7.5603395700454712e-01 4.3989051133394241e-02</leafValues></_>
        <_>
          <internalNodes>
            0 -1 300 3.9360228925943375e-02</internalNodes>
          <leafValues>
            5.5896095931529999e-02 -5.2852970361709595e-01</leafValues></_>
        <_>
          <internalNodes>
            0 -1 7 9.9888266995549202e-03</internalNodes>
          <leafValues>
            -4.5929533243179321e-01 6.7349538207054138e-02</leafValues></_>
        <_>
          <internalNodes>
            0 -1 120 3.5958573222160339e-02</internalNodes>
          <leafValues>
            7.9385839402675629e-02 -4.4777855277061462e-01</leafValues></_>
        <_>
          <internalNodes>
            0 -1 137 1.7099918797612190e-02</internalNodes>
          <leafValues>
            -3.4815159440040588e-01 9.3008212745189667e-02</leafValues></_>
        <_>
          <internalNodes>
            0 -1 159 3.1811818480491638e-02</internalNodes>
          <leafValues>
            1.5512447059154510e-01 -2.3784855008125305e-01</leafValues></_>
        <_>
          <internalNodes>
            0 -1 316 2.0689625293016434e-02</internalNodes>
          <leafValues>
            -1.7857553064823151e-01 1.9475035369396210e-01</leafValues></_>
        <_>
          <internalNodes>
            0 -1 274 1.1581173166632652e-02</internalNodes>
          <leafValues>
            -5.8806627988815308e-01 6.5969042479991913e-02</leafValues></_>
        <_>
          <internalNodes>
            0 -1 217 5.1401406526565552e-02</internalNodes>
          <leafValues>
            3.2173588871955872e-02 -7.6018148660659790e-01</leafValues></_>
        <_>
          <internalNodes>
            0 -1 228 4.1539099067449570e-02</internalNodes>
          <leafValues>
            7.7560611069202423e-02 -3.5567680001258850e-01</leafValues></_>
        <_>
          <internalNodes>
            0 -1 334 3.8626767694950104e-02</internalNodes>
          <leafValues>
            7.4313730001449585e-02 -4.6764430403709412e-01</leafValues></_>
        <_>
          <internalNodes>
            0 -1 331 2.5412887334823608e-02</internalNodes>
          <leafValues>
            1.6199038922786713e-01 -1.9145752489566803e-01</leafValues></_>
        <_>
          <internalNodes>
            0 -1 142 5.7327248156070709e-02</internalNodes>
          <leafValues>
            2.7998091652989388e-02 -1.</leafValues></_>
        <_>
          <internalNodes>
            0 -1 157 2.4759924039244652e-02</internalNodes>
          <leafValues>
            2.1428561210632324e-01 -1.5322810411453247e-01</leafValues></_>
        <_>
          <internalNodes>
            0 -1 85 1.9836692139506340e-02</internalNodes>
          <leafValues>
            2.0570230484008789e-01 -1.6788420081138611e-01</leafValues></_>
        <_>
          <internalNodes>
            0 -1 59 3.9621010422706604e-02</internalNodes>
          <leafValues>
            1.0819266736507416e-01 -3.4284520149230957e-01</leafValues></_>
        <_>
          <internalNodes>
            0 -1 293 9.6637196838855743e-03</internalNodes>
          <leafValues>
            6.6586816310882568e-01 -5.3597912192344666e-02</leafValues></_>
        <_>
          <internalNodes>
            0 -1 57 3.8449235260486603e-02</internalNodes>
          <leafValues>
            9.6595168113708496e-02 -3.8580912351608276e-01</leafValues></_>
        <_>
          <internalNodes>
            0 -1 306 6.8140290677547455e-03</internalNodes>
          <leafValues>
            -8.8208389282226563e-01 3.4568499773740768e-02</leafValues></_>
        <_>
          <internalNodes>
            0 -1 30 1.7104499042034149e-02</internalNodes>
          <leafValues>
            2.5221166014671326e-01 -1.1824055761098862e-01</leafValues></_>
        <_>
          <internalNodes>
            0 -1 92 2.0273146219551563e-03</internalNodes>
          <leafValues>
            -9.5273345708847046e-01 3.8632493466138840e-02</leafValues></_>
        <_>
          <internalNodes>
            0 -1 1 9.4406018033623695e-03</internalNodes>
          <leafValues>
            4.6179804205894470e-01 -8.9712105691432953e-02</leafValues></_>
        <_>
          <internalNodes>
            0 -1 188 3.6520518362522125e-02</internalNodes>
          <leafValues>
            -1.4833156764507294e-01 2.3004527390003204e-01</leafValues></_>
        <_>
          <internalNodes>
            0 -1 145 4.3001435697078705e-02</internalNodes>
          <leafValues>
            -8.5224308073520660e-02 3.6800855398178101e-01</leafValues></_>
        <_>
          <internalNodes>
            0 -1 2 6.7056789994239807e-02</internalNodes>
          <leafValues>
            -5.7769764214754105e-02 5.2496898174285889e-01</leafValues></_>
        <_>
          <internalNodes>
            0 -1 139 5.0536761991679668e-03</internalNodes>
          <leafValues>
            -7.0853680372238159e-01 4.6173062175512314e-02</leafValues></_>
        <_>
          <internalNodes>
            0 -1 14 7.2379261255264282e-02</internalNodes>
          <leafValues>
            -4.3818742036819458e-02 9.3272525072097778e-01</leafValues></_>
        <_>
          <internalNodes>
            0 -1 337 2.3114494979381561e-02</internalNodes>
          <leafValues>
            -9.8530486226081848e-02 2.6564270257949829e-01</leafValues></_>
        <_>
          <internalNodes>
            0 -1 240 1.7997488379478455e-02</internalNodes>
          <leafValues>
            -3.0120095610618591e-01 1.0281630605459213e-01</leafValues></_>
        <_>
          <internalNodes>
            0 -1 62 1.1056983843445778e-02</internalNodes>
          <leafValues>
            -3.8202789425849915e-01 7.6721929013729095e-02</leafValues></_>
        <_>
          <internalNodes>
            0 -1 210 2.0414374768733978e-02</internalNodes>
          <leafValues>
            1.5058712661266327e-01 -1.8840435147285461e-01</leafValues></_>
        <_>
          <internalNodes>
            0 -1 202 4.2183503508567810e-02</internalNodes>
          <leafValues>
            7.5146242976188660e-02 -3.4986543655395508e-01</leafValues></_>
        <_>
          <internalNodes>
            0 -1 154 4.5985169708728790e-02</internalNodes>
          <leafValues>
            5.0109852105379105e-02 -6.0789602994918823e-01</leafValues></_></weakClassifiers></_>
    <!-- stage 7 -->
    <_>
      <maxWeakCount>61</maxWeakCount>
      <stageThreshold>-3.6038050055503845e-01</stageThreshold>
      <weakClassifiers>
        <_>
          <internalNodes>
            0 -1 169 2.6016380637884140e-02</internalNodes>
          <leafValues>
            4.3478261679410934e-02 -3.2103320956230164e-01</leafValues></_>
        <_>
          <internalNodes>
            0 -1 252 7.0814803242683411e-02</internalNodes>
          <leafValues>
            2.9978303238749504e-02 -1.</leafValues></_>
        <_>
          <internalNodes>
            0 -1 24 1.3275532051920891e-02</internalNodes>
          <leafValues>
            2.3650543391704559e-01 -1.4490121603012085e-01</leafValues></_>
        <_>
          <internalNodes>
            0 -1 301 6.7194432020187378e-02</internalNodes>
          <leafValues>
            5.2105143666267395e-02 -7.5957810878753662e-01</leafValues></_>
        <_>
          <internalNodes>
            0 -1 247 1.6164876520633698e-02</internalNodes>
          <leafValues>
            -3.9227768778800964e-01 1.0196876525878906e-01</leafValues></_>
        <_>
          <internalNodes>
            0 -1 275 1.9086595624685287e-02</internalNodes>
          <leafValues>
            2.5004562735557556e-01 -1.3681796193122864e-01</leafValues></_>
        <_>
          <internalNodes>
            0 -1 160 5.1890321075916290e-02</internalNodes>
          <leafValues>
            -1.4824670553207397e-01 2.5508731603622437e-01</leafValues></_>
        <_>
          <internalNodes>
            0 -1 86 3.3564433455467224e-02</internalNodes>
          <leafValues>
            1.2056391686201096e-01 -2.9574093222618103e-01</leafValues></_>
        <_>
          <internalNodes>
            0 -1 259 2.7355043217539787e-02</internalNodes>
          <leafValues>
            1.7120079696178436e-01 -2.1476808190345764e-01</leafValues></_>
        <_>
          <internalNodes>
            0 -1 184 5.9107989072799683e-02</internalNodes>
          <leafValues>
            -5.8161787455901504e-04 -8.2482683658599854e-01</leafValues></_>
        <_>
          <internalNodes>
            0 -1 325 2.1877234801650047e-02</internalNodes>
          <leafValues>
            -2.3380462825298309e-01 1.4349472522735596e-01</leafValues></_>
        <_>
          <internalNodes>
            0 -1 31 1.9842443987727165e-02</internalNodes>
          <leafValues>
            2.0167590677738190e-01 -1.7468640208244324e-01</leafValues></_>
        <_>
          <internalNodes>
            0 -1 108 2.7843190357089043e-02</internalNodes>
          <leafValues>
            -1.4472158253192902e-01 2.3659394681453705e-01</leafValues></_>
        <_>
          <internalNodes>
            0 -1 126 2.6424224488437176e-03</internalNodes>
          <leafValues>
            -9.3979924917221069e-01 2.3740731179714203e-02</leafValues></_>
        <_>
          <internalNodes>
            0 -1 88 1.3455550186336040e-02</internalNodes>
          <leafValues>
            2.4537779390811920e-01 -1.3039256632328033e-01</leafValues></_>
        <_>
          <internalNodes>
            0 -1 134 1.1339951306581497e-02</internalNodes>
          <leafValues>
            -5.6705993413925171e-01 9.0162716805934906e-02</leafValues></_>
        <_>
          <internalNodes>
            0 -1 308 2.3534335196018219e-02</internalNodes>
          <leafValues>
            -1.9538834691047668e-01 1.4588378369808197e-01</leafValues></_>
        <_>
          <internalNodes>
            0 -1 149 6.7403432913124561e-03</internalNodes>
          <leafValues>
            -4.9602356553077698e-01 6.9584369659423828e-02</leafValues></_>
        <_>
          <internalNodes>
            0 -1 87 1.6658540815114975e-02</internalNodes>
          <leafValues>
            2.2752735018730164e-01 -1.6446213424205780e-01</leafValues></_>
        <_>
          <internalNodes>
            0 -1 2 1.7483234405517578e-02</internalNodes>
          <leafValues>
            -2.6952037215232849e-01 9.8091863095760345e-02</leafValues></_>
        <_>
          <internalNodes>
            0 -1 161 6.2049437314271927e-02</internalNodes>
          <leafValues>
            -4.1415970772504807e-02 7.6371258497238159e-01</leafValues></_>
        <_>
          <internalNodes>
            0 -1 177 1.3032177463173866e-02</internalNodes>
          <leafValues>
            2.7628833055496216e-01 -1.0068250447511673e-01</leafValues></_>
        <_>
          <internalNodes>
            0 -1 191 1.0695206001400948e-02</internalNodes>
          <leafValues>
            -4.1007652878761292e-01 7.5240992009639740e-02</leafValues></_>
        <_>
          <internalNodes>
            0 -1 191 2.6788089424371719e-02</internalNodes>
          <leafValues>
            1.5121048688888550e-01 -2.1291141211986542e-01</leafValues></_>
        <_>
          <internalNodes>
            0 -1 285 3.9137300103902817e-02</internalNodes>
          <leafValues>
            7.0127181708812714e-02 -3.9596420526504517e-01</leafValues></_>
        <_>
          <internalNodes>
            0 -1 100 2.4632049724459648e-02</internalNodes>
          <leafValues>
            -1.8649698793888092e-01 1.5963628888130188e-01</leafValues></_>
        <_>
          <internalNodes>
            0 -1 284 2.9103953391313553e-02</internalNodes>
          <leafValues>
            -1.1921355873346329e-01 2.8952130675315857e-01</leafValues></_>
        <_>
          <internalNodes>
            0 -1 78 6.7065663635730743e-02</internalNodes>
          <leafValues>
            3.2532684504985809e-02 -7.0487612485885620e-01</leafValues></_>
        <_>
          <internalNodes>
            0 -1 171 1.8663279712200165e-02</internalNodes>
          <leafValues>
            2.3954352736473083e-01 -1.2429288029670715e-01</leafValues></_>
        <_>
          <internalNodes>
            0 -1 112 4.3410308659076691e-02</internalNodes>
          <leafValues>
            -1.1025923490524292e-01 2.6896211504936218e-01</leafValues></_>
        <_>
          <internalNodes>
            0 -1 315 1.4938538894057274e-02</internalNodes>
          <leafValues>
            -1.9580227136611938e-01 1.4987896382808685e-01</leafValues></_>
        <_>
          <internalNodes>
            0 -1 156 9.2996079474687576e-03</internalNodes>
          <leafValues>
            6.6977089643478394e-01 -5.1691029220819473e-02</leafValues></_>
        <_>
          <internalNodes>
            0 -1 11 1.5535271726548672e-02</internalNodes>
          <leafValues>
            -3.1295880675315857e-01 1.1167595535516739e-01</leafValues></_>
        <_>
          <internalNodes>
            0 -1 10 4.3113671243190765e-02</internalNodes>
          <leafValues>
            6.6603362560272217e-02 -4.1512176394462585e-01</leafValues></_>
        <_>
          <internalNodes>
            0 -1 53 4.5241020619869232e-02</internalNodes>
          <leafValues>
            -7.8877560794353485e-02 4.2743840813636780e-01</leafValues></_>
        <_>
          <internalNodes>
            0 -1 123 6.8488642573356628e-02</internalNodes>
          <leafValues>
            6.5392896533012390e-02 -5.8802872896194458e-01</leafValues></_>
        <_>
          <internalNodes>
            0 -1 73 3.6568395793437958e-02</internalNodes>
          <leafValues>
            6.4473167061805725e-02 -3.9152812957763672e-01</leafValues></_>
        <_>
          <internalNodes>
            0 -1 127 1.5470591373741627e-02</internalNodes>
          <leafValues>
            -2.1919508278369904e-01 1.3599847257137299e-01</leafValues></_>
        <_>
          <internalNodes>
            0 -1 164 1.2050079181790352e-02</internalNodes>
          <leafValues>
            3.2369738817214966e-01 -1.1493252217769623e-01</leafValues></_>
        <_>
          <internalNodes>
            0 -1 309 3.0993271619081497e-02</internalNodes>
          <leafValues>
            1.0283515602350235e-01 -3.0531728267669678e-01</leafValues></_>
        <_>
          <internalNodes>
            0 -1 200 1.0177585482597351e-01</internalNodes>
          <leafValues>
            -3.5329259932041168e-02 7.6411837339401245e-01</leafValues></_>
        <_>
          <internalNodes>
            0 -1 215 2.3103054612874985e-02</internalNodes>
          <leafValues>
            -2.9504516720771790e-01 1.0348729044198990e-01</leafValues></_>
        <_>
          <internalNodes>
            0 -1 286 1.1173945851624012e-02</internalNodes>
          <leafValues>
            6.2308216094970703e-01 -5.0960235297679901e-02</leafValues></_>
        <_>
          <internalNodes>
            0 -1 194 5.2346638403832912e-03</internalNodes>
          <leafValues>
            -6.9005692005157471e-01 3.9945621043443680e-02</leafValues></_>
        <_>
          <internalNodes>
            0 -1 258 1.1712931096553802e-02</internalNodes>
          <leafValues>
            4.4233670830726624e-01 -9.1265082359313965e-02</leafValues></_>
        <_>
          <internalNodes>
            0 -1 117 1.1789651587605476e-02</internalNodes>
          <leafValues>
            -3.5002622008323669e-01 8.3961285650730133e-02</leafValues></_>
        <_>
          <internalNodes>
            0 -1 198 1.7913782969117165e-02</internalNodes>
          <leafValues>
            2.2236354649066925e-01 -1.2841729819774628e-01</leafValues></_>
        <_>
          <internalNodes>
            0 -1 122 1.9958276301622391e-02</internalNodes>
          <leafValues>
            1.4284479618072510e-01 -2.2004121541976929e-01</leafValues></_>
        <_>
          <internalNodes>
            0 -1 75 4.1743658483028412e-02</internalNodes>
          <leafValues>
            -6.9549530744552612e-02 5.3003054857254028e-01</leafValues></_>
        <_>
          <internalNodes>
            0 -1 190 8.8009350001811981e-03</internalNodes>
          <leafValues>
            4.3488439917564392e-01 -5.8511547744274139e-02</leafValues></_>
        <_>
          <internalNodes>
            0 -1 106 1.1281505227088928e-02</internalNodes>
          <leafValues>
            -3.5253950953483582e-01 8.9398659765720367e-02</leafValues></_>
        <_>
          <internalNodes>
            0 -1 296 4.2637296020984650e-02</internalNodes>
          <leafValues>
            -5.8140508830547333e-02 5.9212559461593628e-01</leafValues></_>
        <_>
          <internalNodes>
            0 -1 115 2.7446841821074486e-02</internalNodes>
          <leafValues>
            1.4913046360015869e-01 -2.1187075972557068e-01</leafValues></_>
        <_>
          <internalNodes>
            0 -1 169 2.5335468351840973e-02</internalNodes>
          <leafValues>
            1.6024689376354218e-01 -2.0776951313018799e-01</leafValues></_>
        <_>
          <internalNodes>
            0 -1 203 1.1674802750349045e-02</internalNodes>
          <leafValues>
            -3.7402632832527161e-01 9.8943635821342468e-02</leafValues></_>
        <_>
          <internalNodes>
            0 -1 241 1.4242932200431824e-02</internalNodes>
          <leafValues>
            -5.3707200288772583e-01 5.7377491146326065e-02</leafValues></_>
        <_>
          <internalNodes>
            0 -1 305 6.0950193554162979e-02</internalNodes>
          <leafValues>
            5.5672053247690201e-02 -4.5814129710197449e-01</leafValues></_>
        <_>
          <internalNodes>
            0 -1 332 3.4553468227386475e-02</internalNodes>
          <leafValues>
            -1.4856110513210297e-01 2.6647800207138062e-01</leafValues></_>
        <_>
          <internalNodes>
            0 -1 116 7.1630328893661499e-03</internalNodes>
          <leafValues>
            4.7969871759414673e-01 -6.8863563239574432e-02</leafValues></_>
        <_>
          <internalNodes>
            0 -1 133 2.2272601723670959e-02</internalNodes>
          <leafValues>
            -1.6375961899757385e-01 1.7818747460842133e-01</leafValues></_>
        <_>
          <internalNodes>
            0 -1 272 4.0270693600177765e-02</internalNodes>
          <leafValues>
            -1.0811360925436020e-01 2.9669538140296936e-01</leafValues></_></weakClassifiers></_>
    <!-- stage 8 -->
    <_>
      <maxWeakCount>42</maxWeakCount>
      <stageThreshold>-1.2424551695585251e-01</stageThreshold>
      <weakClassifiers>
        <_>
          <internalNodes>
            0 -1 18 9.6306977793574333e-03</internalNodes>
          <leafValues>
            -1.5942029654979706e-01 3.6723163723945618e-01</leafValues></_>
        <_>
          <internalNodes>
            0 -1 69 2.3714035749435425e-02</internalNodes>
          <leafValues>
            -2.0045427978038788e-01 2.0998744666576385e-01</leafValues></_>
        <_>
          <internalNodes>
            0 -1 56 2.9020415619015694e-02</internalNodes>
          <leafValues>
            1.4428380131721497e-01 -3.0458724498748779e-01</leafValues></_>
        <_>
          <internalNodes>
            0 -1 267 2.3920744657516479e-02</internalNodes>
          <leafValues>
            2.1322479844093323e-01 -1.9222134351730347e-01</leafValues></_>
        <_>
          <internalNodes>
            0 -1 95 3.4984156489372253e-02</internalNodes>
          <leafValues>
            6.6887438297271729e-02 -4.5151248574256897e-01</leafValues></_>
        <_>
          <internalNodes>
            0 -1 49 2.9036665335297585e-02</internalNodes>
          <leafValues>
            1.4230287075042725e-01 -3.3785778284072876e-01</leafValues></_>
        <_>
          <internalNodes>
            0 -1 47 5.4914750158786774e-02</internalNodes>
          <leafValues>
            -8.2328245043754578e-02 4.7470825910568237e-01</leafValues></_>
        <_>
          <internalNodes>
            0 -1 151 2.6894997805356979e-02</internalNodes>
          <leafValues>
            -1.5679803490638733e-01 2.8614336252212524e-01</leafValues></_>
        <_>
          <internalNodes>
            0 -1 205 3.6614224314689636e-02</internalNodes>
          <leafValues>
            1.1071614921092987e-01 -4.6474125981330872e-01</leafValues></_>
        <_>
          <internalNodes>
            0 -1 125 1.6606478020548820e-02</internalNodes>
          <leafValues>
            3.8036599755287170e-01 -1.3897339999675751e-01</leafValues></_>
        <_>
          <internalNodes>
            0 -1 46 8.5691679269075394e-03</internalNodes>
          <leafValues>
            6.4784842729568481e-01 -5.5320437997579575e-02</leafValues></_>
        <_>
          <internalNodes>
            0 -1 246 1.5264366753399372e-02</internalNodes>
          <leafValues>
            -4.1141963005065918e-01 1.1427066475152969e-01</leafValues></_>
        <_>
          <internalNodes>
            0 -1 324 1.4821039512753487e-02</internalNodes>
          <leafValues>
            7.1906453371047974e-01 -8.1051789224147797e-02</leafValues></_>
        <_>
          <internalNodes>
            0 -1 131 1.3719176873564720e-02</internalNodes>
          <leafValues>
            3.0695351958274841e-01 -1.3419789075851440e-01</leafValues></_>
        <_>
          <internalNodes>
            0 -1 268 1.3475008308887482e-02</internalNodes>
          <leafValues>
            -4.4120401144027710e-01 1.0232417285442352e-01</leafValues></_>
        <_>
          <internalNodes>
            0 -1 217 4.9442362040281296e-02</internalNodes>
          <leafValues>
            6.1573043465614319e-02 -6.3526076078414917e-01</leafValues></_>
        <_>
          <internalNodes>
            0 -1 96 4.8373043537139893e-02</internalNodes>
          <leafValues>
            7.7716544270515442e-02 -4.9604490399360657e-01</leafValues></_>
        <_>
          <internalNodes>
            0 -1 140 2.3231960833072662e-02</internalNodes>
          <leafValues>
            1.8432772159576416e-01 -2.4921806156635284e-01</leafValues></_>
        <_>
          <internalNodes>
            0 -1 83 6.2447926029562950e-03</internalNodes>
          <leafValues>
            -7.0273029804229736e-01 7.1362882852554321e-02</leafValues></_>
        <_>
          <internalNodes>
            0 -1 100 9.2862099409103394e-03</internalNodes>
          <leafValues>
            8.0395996570587158e-01 -6.7326463758945465e-02</leafValues></_>
        <_>
          <internalNodes>
            0 -1 238 4.0514782071113586e-02</internalNodes>
          <leafValues>
            1.4470402896404266e-01 -3.5811379551887512e-01</leafValues></_>
        <_>
          <internalNodes>
            0 -1 219 2.8196558356285095e-02</internalNodes>
          <leafValues>
            1.7903135716915131e-01 -2.6795741915702820e-01</leafValues></_>
        <_>
          <internalNodes>
            0 -1 27 1.8409878015518188e-02</internalNodes>
          <leafValues>
            3.3699217438697815e-01 -1.5077944099903107e-01</leafValues></_>
        <_>
          <internalNodes>
            0 -1 68 1.6542382538318634e-02</internalNodes>
          <leafValues>
            -3.7261676788330078e-01 1.4042966067790985e-01</leafValues></_>
        <_>
          <internalNodes>
            0 -1 273 2.0867278799414635e-02</internalNodes>
          <leafValues>
            3.0970606207847595e-01 -1.5264101326465607e-01</leafValues></_>
        <_>
          <internalNodes>
            0 -1 303 3.7419494241476059e-02</internalNodes>
          <leafValues>
            1.2747071683406830e-01 -3.6433357000350952e-01</leafValues></_>
        <_>
          <internalNodes>
            0 -1 283 4.1219383478164673e-02</internalNodes>
          <leafValues>
            7.3902845382690430e-02 -5.8497482538223267e-01</leafValues></_>
        <_>
          <internalNodes>
            0 -1 45 5.0384648144245148e-02</internalNodes>
          <leafValues>
            7.3008194565773010e-02 -6.1557191610336304e-01</leafValues></_>
        <_>
          <internalNodes>
            0 -1 21 1.6663948073983192e-02</internalNodes>
          <leafValues>
            -3.6787527799606323e-01 1.4515209197998047e-01</leafValues></_>
        <_>
          <internalNodes>
            0 -1 132 2.9973477125167847e-02</internalNodes>
          <leafValues>
            1.9389359652996063e-01 -3.0580431222915649e-01</leafValues></_>
        <_>
          <internalNodes>
            0 -1 189 1.3947294093668461e-02</internalNodes>
          <leafValues>
            -4.9480894207954407e-01 9.5828361809253693e-02</leafValues></_>
        <_>
          <internalNodes>
            0 -1 9 4.5715179294347763e-02</internalNodes>
          <leafValues>
            -1.7672528326511383e-01 2.8925186395645142e-01</leafValues></_>
        <_>
          <internalNodes>
            0 -1 8 1.3264934532344341e-02</internalNodes>
          <leafValues>
            -3.3506739139556885e-01 1.4461834728717804e-01</leafValues></_>
        <_>
          <internalNodes>
            0 -1 147 1.1567866429686546e-02</internalNodes>
          <leafValues>
            -4.6941661834716797e-01 1.0764349251985550e-01</leafValues></_>
        <_>
          <internalNodes>
            0 -1 218 1.2292968109250069e-02</internalNodes>
          <leafValues>
            3.8818812370300293e-01 -1.5153054893016815e-01</leafValues></_>
        <_>
          <internalNodes>
            0 -1 181 2.4595316499471664e-02</internalNodes>
          <leafValues>
            2.1705842018127441e-01 -2.0966792106628418e-01</leafValues></_>
        <_>
          <internalNodes>
            0 -1 307 1.3529639691114426e-02</internalNodes>
          <leafValues>
            -2.7171736955642700e-01 2.0536224544048309e-01</leafValues></_>
        <_>
          <internalNodes>
            0 -1 114 7.6778165996074677e-02</internalNodes>
          <leafValues>
            4.9662306904792786e-02 -9.4003945589065552e-01</leafValues></_>
        <_>
          <internalNodes>
            0 -1 208 1.1851495131850243e-02</internalNodes>
          <leafValues>
            2.8918141126632690e-01 -1.7557156085968018e-01</leafValues></_>
        <_>
          <internalNodes>
            0 -1 187 9.2830052599310875e-03</internalNodes>
          <leafValues>
            -7.0331162214279175e-01 6.1373498290777206e-02</leafValues></_>
        <_>
          <internalNodes>
            0 -1 113 5.6774034164845943e-03</internalNodes>
          <leafValues>
            1. -5.8230038732290268e-02</leafValues></_>
        <_>
          <internalNodes>
            0 -1 279 1.1944341473281384e-02</internalNodes>
          <leafValues>
            -6.7054426670074463e-01 7.6238580048084259e-02</leafValues></_></weakClassifiers></_>
    <!-- stage 9 -->
    <_>
      <maxWeakCount>41</maxWeakCount>
      <stageThreshold>-1.1119192093610764e-01</stageThreshold>
      <weakClassifiers>
        <_>
          <internalNodes>
            0 -1 250 1.8074598163366318e-02</internalNodes>
          <leafValues>
            5.6435644626617432e-01 1.2562814354896545e-01</leafValues></_>
        <_>
          <internalNodes>
            0 -1 201 3.2169505953788757e-02</internalNodes>
          <leafValues>
            1.9390130043029785e-01 -3.1148430705070496e-01</leafValues></_>
        <_>
          <internalNodes>
            0 -1 51 2.3073742166161537e-02</internalNodes>
          <leafValues>
            -2.9261872172355652e-01 1.9987913966178894e-01</leafValues></_>
        <_>
          <internalNodes>
            0 -1 306 2.8646824881434441e-02</internalNodes>
          <leafValues>
            2.3397964239120483e-01 -2.1949644386768341e-01</leafValues></_>
        <_>
          <internalNodes>
            0 -1 79 5.4134409874677658e-02</internalNodes>
          <leafValues>
            6.7322738468647003e-02 -5.5707061290740967e-01</leafValues></_>
        <_>
          <internalNodes>
            0 -1 163 5.3111307322978973e-02</internalNodes>
          <leafValues>
            -5.3603265434503555e-02 8.7137597799301147e-01</leafValues></_>
        <_>
          <internalNodes>
            0 -1 110 1.7817687243223190e-02</internalNodes>
          <leafValues>
            -2.8526055812835693e-01 1.6171218454837799e-01</leafValues></_>
        <_>
          <internalNodes>
            0 -1 232 4.5437216758728027e-03</internalNodes>
          <leafValues>
            -7.4888813495635986e-01 7.9200550913810730e-02</leafValues></_>
        <_>
          <internalNodes>
            0 -1 105 1.1756120249629021e-02</internalNodes>
          <leafValues>
            4.6571227908134460e-01 -1.0909784585237503e-01</leafValues></_>
        <_>
          <internalNodes>
            0 -1 143 4.0446087718009949e-02</internalNodes>
          <leafValues>
            -1.1136702448129654e-01 5.7769334316253662e-01</leafValues></_>
        <_>
          <internalNodes>
            0 -1 64 9.4000604003667831e-03</internalNodes>
          <leafValues>
            4.9854776263237000e-01 -1.0301148146390915e-01</leafValues></_>
        <_>
          <internalNodes>
            0 -1 176 8.4742847830057144e-03</internalNodes>
          <leafValues>
            -6.1845207214355469e-01 9.8504155874252319e-02</leafValues></_>
        <_>
          <internalNodes>
            0 -1 311 5.4258026182651520e-02</internalNodes>
          <leafValues>
            6.5560273826122284e-02 -7.0408987998962402e-01</leafValues></_>
        <_>
          <internalNodes>
            0 -1 33 2.6291336864233017e-02</internalNodes>
          <leafValues>
            -1.5860141813755035e-01 3.4966188669204712e-01</leafValues></_>
        <_>
          <internalNodes>
            0 -1 295 1.8432574346661568e-02</internalNodes>
          <leafValues>
            2.5204104185104370e-01 -2.0569089055061340e-01</leafValues></_>
        <_>
          <internalNodes>
            0 -1 63 7.1961861103773117e-03</internalNodes>
          <leafValues>
            -6.5481412410736084e-01 8.3738572895526886e-02</leafValues></_>
        <_>
          <internalNodes>
            0 -1 298 3.3721413463354111e-02</internalNodes>
          <leafValues>
            1.2712338566780090e-01 -4.0015855431556702e-01</leafValues></_>
        <_>
          <internalNodes>
            0 -1 77 2.1839406341314316e-02</internalNodes>
          <leafValues>
            -2.3612104356288910e-01 2.3528942465782166e-01</leafValues></_>
        <_>
          <internalNodes>
            0 -1 242 1.4792142435908318e-02</internalNodes>
          <leafValues>
            -5.4516345262527466e-01 1.0433608293533325e-01</leafValues></_>
        <_>
          <internalNodes>
            0 -1 197 1.1151276528835297e-02</internalNodes>
          <leafValues>
            4.7493246197700500e-01 -1.2180347740650177e-01</leafValues></_>
        <_>
          <internalNodes>
            0 -1 153 1.0102528147399426e-02</internalNodes>
          <leafValues>
            -4.6197882294654846e-01 1.2285971641540527e-01</leafValues></_>
        <_>
          <internalNodes>
            0 -1 207 4.8995494842529297e-02</internalNodes>
          <leafValues>
            -9.1241680085659027e-02 6.2461698055267334e-01</leafValues></_>
        <_>
          <internalNodes>
            0 -1 292 4.0051739662885666e-02</internalNodes>
          <leafValues>
            1.5598820149898529e-01 -3.7916669249534607e-01</leafValues></_>
        <_>
          <internalNodes>
            0 -1 91 5.8177106082439423e-02</internalNodes>
          <leafValues>
            -7.0737093687057495e-02 9.0287774801254272e-01</leafValues></_>
        <_>
          <internalNodes>
            0 -1 118 2.3093849886208773e-03</internalNodes>
          <leafValues>
            -8.4715384244918823e-01 7.9448156058788300e-02</leafValues></_>
        <_>
          <internalNodes>
            0 -1 137 3.6320853978395462e-02</internalNodes>
          <leafValues>
            -1.5254005789756775e-01 3.4867572784423828e-01</leafValues></_>
        <_>
          <internalNodes>
            0 -1 6 4.3788313865661621e-02</internalNodes>
          <leafValues>
            1.1510377377271652e-01 -4.8889601230621338e-01</leafValues></_>
        <_>
          <internalNodes>
            0 -1 264 3.0209494754672050e-02</internalNodes>
          <leafValues>
            -2.3044395446777344e-01 2.3973409831523895e-01</leafValues></_>
        <_>
          <internalNodes>
            0 -1 271 2.9591687023639679e-02</internalNodes>
          <leafValues>
            -2.3589931428432465e-01 2.2793294489383698e-01</leafValues></_>
        <_>
          <internalNodes>
            0 -1 55 1.0188905522227287e-02</internalNodes>
          <leafValues>
            6.3685709238052368e-01 -7.5962126255035400e-02</leafValues></_>
        <_>
          <internalNodes>
            0 -1 321 1.6360823065042496e-02</internalNodes>
          <leafValues>
            4.8405435681343079e-01 -1.0654800385236740e-01</leafValues></_>
        <_>
          <internalNodes>
            0 -1 130 1.7424447461962700e-02</internalNodes>
          <leafValues>
            -2.4124529957771301e-01 2.2440262138843536e-01</leafValues></_>
        <_>
          <internalNodes>
            0 -1 229 2.2349033504724503e-02</internalNodes>
          <leafValues>
            3.3448237180709839e-01 -1.6693225502967834e-01</leafValues></_>
        <_>
          <internalNodes>
            0 -1 250 1.6273483633995056e-02</internalNodes>
          <leafValues>
            3.2562652230262756e-01 -1.6768248379230499e-01</leafValues></_>
        <_>
          <internalNodes>
            0 -1 263 2.4349831044673920e-02</internalNodes>
          <leafValues>
            -1.5926945209503174e-01 3.7945193052291870e-01</leafValues></_>
        <_>
          <internalNodes>
            0 -1 196 8.9336112141609192e-02</internalNodes>
          <leafValues>
            -7.2670675814151764e-02 6.3667649030685425e-01</leafValues></_>
        <_>
          <internalNodes>
            0 -1 71 1.5353258699178696e-02</internalNodes>
          <leafValues>
            5.8118718862533569e-01 -8.3360068500041962e-02</leafValues></_>
        <_>
          <internalNodes>
            0 -1 152 4.5277222990989685e-02</internalNodes>
          <leafValues>
            1.4564865827560425e-01 -3.8184410333633423e-01</leafValues></_>
        <_>
          <internalNodes>
            0 -1 290 2.4750303477048874e-02</internalNodes>
          <leafValues>
            -2.0858335494995117e-01 2.8945145010948181e-01</leafValues></_>
        <_>
          <internalNodes>
            0 -1 281 2.9576199129223824e-02</internalNodes>
          <leafValues>
            -2.0912194252014160e-01 2.7775251865386963e-01</leafValues></_>
        <_>
          <internalNodes>
            0 -1 124 2.5040775537490845e-02</internalNodes>
          <leafValues>
            2.5062116980552673e-01 -2.6027569174766541e-01</leafValues></_></weakClassifiers></_></stages>
  <features>
    <_>
      <rect>
        0 0 8 8 1</rect></_>
    <_>
      <rect>
        0 0 8 8 8</rect></_>
    <_>
      <rect>
        0 0 8 8 18</rect></_>
    <_>
      <rect>
        0 0 8 8 21</rect></_>
    <_>
      <rect>
        0 0 8 8 22</rect></_>
    <_>
      <rect>
        0 0 8 8 26</rect></_>
    <_>
      <rect>
        0 0 8 8 28</rect></_>
    <_>
      <rect>
        0 0 8 8 32</rect></_>
    <_>
      <rect>
        0 0 8 8 35</rect></_>
    <_>
      <rect>
        0 4 8 8 1</rect></_>
    <_>
      <rect>
        0 4 8 8 8</rect></_>
    <_>
      <rect>
        0 4 8 8 10</rect></_>
    <_>
      <rect>
        0 4 8 8 15</rect></_>
    <_>
      <rect>
        0 4 8 8 17</rect></_>
    <_>
      <rect>
        0 4 8 8 21</rect></_>
    <_>
      <rect>
        0 4 8 8 22</rect></_>
    <_>
      <rect>
        0 4 8 8 26</rect></_>
    <_>
      <rect>
        0 4 8 8 34</rect></_>
    <_>
      <rect>
        0 4 8 8 35</rect></_>
    <_>
      <rect>
        0 8 8 8 3</rect></_>
    <_>
      <rect>
        0 8 8 8 5</rect></_>
    <_>
      <rect>
        0 8 8 8 9</rect></_>
    <_>
      <rect>
        0 8 8 8 15</rect></_>
    <_>
      <rect>
        0 8 8 8 16</rect></_>
    <_>
      <rect>
        0 8 8 8 19</rect></_>
    <_>
      <rect>
        0 8 8 8 21</rect></_>
    <_>
      <rect>
        0 8 8 8 22</rect></_>
    <_>
      <rect>
        0 8 8 8 24</rect></_>
    <_>
      <rect>
        0 8 8 8 29</rect></_>
    <_>
      <rect>
        0 8 8 8 33</rect></_>
    <_>
      <rect>
        0 12 8 8 0</rect></_>
    <_>
      <rect>
        0 12 8 8 3</rect></_>
    <_>
      <rect>
        0 12 8 8 12</rect></_>
    <_>
      <rect>
        0 12 8 8 18</rect></_>
    <_>
      <rect>
        0 12 8 8 19</rect></_>
    <_>
      <rect>
        0 12 8 8 22</rect></_>
    <_>
      <rect>
        0 12 8 8 23</rect></_>
    <_>
      <rect>
        0 12 8 8 24</rect></_>
    <_>
      <rect>
        0 12 8 8 25</rect></_>
    <_>
      <rect>
        0 12 8 8 26</rect></_>
    <_>
      <rect>
        0 12 8 8 31</rect></_>
    <_>
      <rect>
        0 12 8 8 32</rect></_>
    <_>
      <rect>
        0 12 8 8 33</rect></_>
    <_>
      <rect>
        0 16 8 8 2</rect></_>
    <_>
      <rect>
        0 16 8 8 4</rect></_>
    <_>
      <rect>
        0 16 8 8 10</rect></_>
    <_>
      <rect>
        0 16 8 8 23</rect></_>
    <_>
      <rect>
        0 16 8 8 25</rect></_>
    <_>
      <rect>
        0 16 8 8 27</rect></_>
    <_>
      <rect>
        0 16 8 8 29</rect></_>
    <_>
      <rect>
        0 16 8 8 33</rect></_>
    <_>
      <rect>
        4 0 8 8 1</rect></_>
    <_>
      <rect>
        4 0 8 8 2</rect></_>
    <_>
      <rect>
        4 0 8 8 8</rect></_>
    <_>
      <rect>
        4 0 8 8 18</rect></_>
    <_>
      <rect>
        4 0 8 8 19</rect></_>
    <_>
      <rect>
        4 0 8 8 24</rect></_>
    <_>
      <rect>
        4 0 8 8 26</rect></_>
    <_>
      <rect>
        4 0 8 8 30</rect></_>
    <_>
      <rect>
        4 0 8 8 31</rect></_>
    <_>
      <rect>
        4 4 8 8 2</rect></_>
    <_>
      <rect>
        4 4 8 8 6</rect></_>
    <_>
      <rect>
        4 4 8 8 9</rect></_>
    <_>
      <rect>
        4 4 8 8 17</rect></_>
    <_>
      <rect>
        4 4 8 8 19</rect></_>
    <_>
      <rect>
        4 4 8 8 21</rect></_>
    <_>
      <rect>
        4 4 8 8 29</rect></_>
    <_>
      <rect>
        4 8 8 8 1</rect></_>
    <_>
      <rect>
        4 8 8 8 4</rect></_>
    <_>
      <rect>
        4 8 8 8 6</rect></_>
    <_>
      <rect>
        4 8 8 8 9</rect></_>
    <_>
      <rect>
        4 8 8 8 13</rect></_>
    <_>
      <rect>
        4 8 8 8 15</rect></_>
    <_>
      <rect>
        4 8 8 8 22</rect></_>
    <_>
      <rect>
        4 8 8 8 24</rect></_>
    <_>
      <rect>
        4 8 8 8 29</rect></_>
    <_>
      <rect>
        4 8 8 8 32</rect></_>
    <_>
      <rect>
        4 12 8 8 3</rect></_>
    <_>
      <rect>
        4 12 8 8 5</rect></_>
    <_>
      <rect>
        4 12 8 8 8</rect></_>
    <_>
      <rect>
        4 12 8 8 12</rect></_>
    <_>
      <rect>
        4 12 8 8 13</rect></_>
    <_>
      <rect>
        4 12 8 8 17</rect></_>
    <_>
      <rect>
        4 12 8 8 29</rect></_>
    <_>
      <rect>
        4 12 8 8 31</rect></_>
    <_>
      <rect>
        4 16 8 8 1</rect></_>
    <_>
      <rect>
        4 16 8 8 14</rect></_>
    <_>
      <rect>
        4 16 8 8 28</rect></_>
    <_>
      <rect>
        4 16 8 8 33</rect></_>
    <_>
      <rect>
        8 0 8 8 0</rect></_>
    <_>
      <rect>
        8 0 8 8 5</rect></_>
    <_>
      <rect>
        8 0 8 8 6</rect></_>
    <_>
      <rect>
        8 0 8 8 7</rect></_>
    <_>
      <rect>
        8 0 8 8 13</rect></_>
    <_>
      <rect>
        8 0 8 8 22</rect></_>
    <_>
      <rect>
        8 0 8 8 27</rect></_>
    <_>
      <rect>
        8 0 8 8 31</rect></_>
    <_>
      <rect>
        8 4 8 8 8</rect></_>
    <_>
      <rect>
        8 4 8 8 13</rect></_>
    <_>
      <rect>
        8 8 8 8 3</rect></_>
    <_>
      <rect>
        8 8 8 8 5</rect></_>
    <_>
      <rect>
        8 8 8 8 6</rect></_>
    <_>
      <rect>
        8 8 8 8 7</rect></_>
    <_>
      <rect>
        8 8 8 8 12</rect></_>
    <_>
      <rect>
        8 8 8 8 23</rect></_>
    <_>
      <rect>
        8 8 8 8 24</rect></_>
    <_>
      <rect>
        8 8 8 8 25</rect></_>
    <_>
      <rect>
        8 8 8 8 30</rect></_>
    <_>
      <rect>
        8 12 8 8 0</rect></_>
    <_>
      <rect>
        8 12 8 8 5</rect></_>
    <_>
      <rect>
        8 12 8 8 10</rect></_>
    <_>
      <rect>
        8 12 8 8 12</rect></_>
    <_>
      <rect>
        8 12 8 8 13</rect></_>
    <_>
      <rect>
        8 12 8 8 16</rect></_>
    <_>
      <rect>
        8 12 8 8 17</rect></_>
    <_>
      <rect>
        8 12 8 8 23</rect></_>
    <_>
      <rect>
        8 12 8 8 25</rect></_>
    <_>
      <rect>
        8 12 8 8 27</rect></_>
    <_>
      <rect>
        8 12 8 8 34</rect></_>
    <_>
      <rect>
        8 16 8 8 8</rect></_>
    <_>
      <rect>
        8 16 8 8 18</rect></_>
    <_>
      <rect>
        8 16 8 8 21</rect></_>
    <_>
      <rect>
        8 16 8 8 34</rect></_>
    <_>
      <rect>
        12 0 8 8 1</rect></_>
    <_>
      <rect>
        12 0 8 8 5</rect></_>
    <_>
      <rect>
        12 0 8 8 7</rect></_>
    <_>
      <rect>
        12 0 8 8 9</rect></_>
    <_>
      <rect>
        12 0 8 8 11</rect></_>
    <_>
      <rect>
        12 0 8 8 15</rect></_>
    <_>
      <rect>
        12 0 8 8 16</rect></_>
    <_>
      <rect>
        12 0 8 8 27</rect></_>
    <_>
      <rect>
        12 0 8 8 28</rect></_>
    <_>
      <rect>
        12 4 8 8 0</rect></_>
    <_>
      <rect>
        12 4 8 8 12</rect></_>
    <_>
      <rect>
        12 4 8 8 14</rect></_>
    <_>
      <rect>
        12 4 8 8 17</rect></_>
    <_>
      <rect>
        12 4 8 8 27</rect></_>
    <_>
      <rect>
        12 8 8 8 2</rect></_>
    <_>
      <rect>
        12 8 8 8 8</rect></_>
    <_>
      <rect>
        12 8 8 8 11</rect></_>
    <_>
      <rect>
        12 8 8 8 20</rect></_>
    <_>
      <rect>
        12 8 8 8 26</rect></_>
    <_>
      <rect>
        12 8 8 8 32</rect></_>
    <_>
      <rect>
        12 8 8 8 35</rect></_>
    <_>
      <rect>
        12 12 8 8 0</rect></_>
    <_>
      <rect>
        12 12 8 8 5</rect></_>
    <_>
      <rect>
        12 12 8 8 10</rect></_>
    <_>
      <rect>
        12 12 8 8 13</rect></_>
    <_>
      <rect>
        12 12 8 8 14</rect></_>
    <_>
      <rect>
        12 12 8 8 20</rect></_>
    <_>
      <rect>
        12 12 8 8 25</rect></_>
    <_>
      <rect>
        12 12 8 8 26</rect></_>
    <_>
      <rect>
        12 12 8 8 27</rect></_>
    <_>
      <rect>
        12 12 8 8 30</rect></_>
    <_>
      <rect>
        12 12 8 8 31</rect></_>
    <_>
      <rect>
        12 12 8 8 34</rect></_>
    <_>
      <rect>
        12 16 8 8 4</rect></_>
    <_>
      <rect>
        12 16 8 8 9</rect></_>
    <_>
      <rect>
        12 16 8 8 21</rect></_>
    <_>
      <rect>
        12 16 8 8 22</rect></_>
    <_>
      <rect>
        12 16 8 8 28</rect></_>
    <_>
      <rect>
        12 16 8 8 32</rect></_>
    <_>
      <rect>
        12 16 8 8 35</rect></_>
    <_>
      <rect>
        16 0 8 8 11</rect></_>
    <_>
      <rect>
        16 0 8 8 12</rect></_>
    <_>
      <rect>
        16 0 8 8 14</rect></_>
    <_>
      <rect>
        16 0 8 8 26</rect></_>
    <_>
      <rect>
        16 0 8 8 27</rect></_>
    <_>
      <rect>
        16 0 8 8 30</rect></_>
    <_>
      <rect>
        16 0 8 8 31</rect></_>
    <_>
      <rect>
        16 4 8 8 1</rect></_>
    <_>
      <rect>
        16 4 8 8 2</rect></_>
    <_>
      <rect>
        16 4 8 8 9</rect></_>
    <_>
      <rect>
        16 4 8 8 10</rect></_>
    <_>
      <rect>
        16 4 8 8 11</rect></_>
    <_>
      <rect>
        16 4 8 8 15</rect></_>
    <_>
      <rect>
        16 4 8 8 21</rect></_>
    <_>
      <rect>
        16 4 8 8 24</rect></_>
    <_>
      <rect>
        16 4 8 8 26</rect></_>
    <_>
      <rect>
        16 4 8 8 27</rect></_>
    <_>
      <rect>
        16 4 8 8 31</rect></_>
    <_>
      <rect>
        16 4 8 8 34</rect></_>
    <_>
      <rect>
        16 4 8 8 35</rect></_>
    <_>
      <rect>
        16 8 8 8 2</rect></_>
    <_>
      <rect>
        16 8 8 8 12</rect></_>
    <_>
      <rect>
        16 8 8 8 14</rect></_>
    <_>
      <rect>
        16 8 8 8 15</rect></_>
    <_>
      <rect>
        16 8 8 8 16</rect></_>
    <_>
      <rect>
        16 8 8 8 17</rect></_>
    <_>
      <rect>
        16 8 8 8 27</rect></_>
    <_>
      <rect>
        16 8 8 8 29</rect></_>
    <_>
      <rect>
        16 12 8 8 7</rect></_>
    <_>
      <rect>
        16 12 8 8 12</rect></_>
    <_>
      <rect>
        16 12 8 8 17</rect></_>
    <_>
      <rect>
        16 12 8 8 18</rect></_>
    <_>
      <rect>
        16 12 8 8 27</rect></_>
    <_>
      <rect>
        16 12 8 8 28</rect></_>
    <_>
      <rect>
        16 12 8 8 30</rect></_>
    <_>
      <rect>
        16 16 8 8 1</rect></_>
    <_>
      <rect>
        16 16 8 8 9</rect></_>
    <_>
      <rect>
        16 16 8 8 10</rect></_>
    <_>
      <rect>
        16 16 8 8 13</rect></_>
    <_>
      <rect>
        16 16 8 8 18</rect></_>
    <_>
      <rect>
        16 16 8 8 21</rect></_>
    <_>
      <rect>
        16 16 8 8 23</rect></_>
    <_>
      <rect>
        16 16 8 8 26</rect></_>
    <_>
      <rect>
        16 16 8 8 28</rect></_>
    <_>
      <rect>
        16 16 8 8 31</rect></_>
    <_>
      <rect>
        16 16 8 8 32</rect></_>
    <_>
      <rect>
        16 16 8 8 33</rect></_>
    <_>
      <rect>
        16 16 8 8 34</rect></_>
    <_>
      <rect>
        0 0 8 16 0</rect></_>
    <_>
      <rect>
        0 0 8 16 1</rect></_>
    <_>
      <rect>
        0 0 8 16 4</rect></_>
    <_>
      <rect>
        0 0 8 16 5</rect></_>
    <_>
      <rect>
        0 0 8 16 12</rect></_>
    <_>
      <rect>
        0 0 8 16 15</rect></_>
    <_>
      <rect>
        0 0 8 16 16</rect></_>
    <_>
      <rect>
        0 0 8 16 21</rect></_>
    <_>
      <rect>
        0 0 8 16 22</rect></_>
    <_>
      <rect>
        0 0 8 16 23</rect></_>
    <_>
      <rect>
        0 0 8 16 30</rect></_>
    <_>
      <rect>
        0 0 8 16 33</rect></_>
    <_>
      <rect>
        0 0 8 16 34</rect></_>
    <_>
      <rect>
        0 0 8 16 35</rect></_>
    <_>
      <rect>
        4 0 8 16 1</rect></_>
    <_>
      <rect>
        4 0 8 16 2</rect></_>
    <_>
      <rect>
        4 0 8 16 3</rect></_>
    <_>
      <rect>
        4 0 8 16 4</rect></_>
    <_>
      <rect>
        4 0 8 16 9</rect></_>
    <_>
      <rect>
        4 0 8 16 11</rect></_>
    <_>
      <rect>
        4 0 8 16 18</rect></_>
    <_>
      <rect>
        4 0 8 16 19</rect></_>
    <_>
      <rect>
        4 0 8 16 20</rect></_>
    <_>
      <rect>
        4 0 8 16 21</rect></_>
    <_>
      <rect>
        4 0 8 16 24</rect></_>
    <_>
      <rect>
        4 0 8 16 27</rect></_>
    <_>
      <rect>
        4 0 8 16 28</rect></_>
    <_>
      <rect>
        8 0 8 16 0</rect></_>
    <_>
      <rect>
        8 0 8 16 3</rect></_>
    <_>
      <rect>
        8 0 8 16 6</rect></_>
    <_>
      <rect>
        8 0 8 16 15</rect></_>
    <_>
      <rect>
        8 0 8 16 22</rect></_>
    <_>
      <rect>
        8 0 8 16 26</rect></_>
    <_>
      <rect>
        8 0 8 16 33</rect></_>
    <_>
      <rect>
        12 0 8 16 3</rect></_>
    <_>
      <rect>
        12 0 8 16 9</rect></_>
    <_>
      <rect>
        12 0 8 16 17</rect></_>
    <_>
      <rect>
        12 0 8 16 20</rect></_>
    <_>
      <rect>
        12 0 8 16 21</rect></_>
    <_>
      <rect>
        12 0 8 16 25</rect></_>
    <_>
      <rect>
        12 0 8 16 29</rect></_>
    <_>
      <rect>
        16 0 8 16 5</rect></_>
    <_>
      <rect>
        16 0 8 16 9</rect></_>
    <_>
      <rect>
        16 0 8 16 12</rect></_>
    <_>
      <rect>
        16 0 8 16 13</rect></_>
    <_>
      <rect>
        16 0 8 16 15</rect></_>
    <_>
      <rect>
        16 0 8 16 16</rect></_>
    <_>
      <rect>
        16 0 8 16 18</rect></_>
    <_>
      <rect>
        16 0 8 16 19</rect></_>
    <_>
      <rect>
        16 0 8 16 21</rect></_>
    <_>
      <rect>
        16 0 8 16 30</rect></_>
    <_>
      <rect>
        16 0 8 16 32</rect></_>
    <_>
      <rect>
        16 0 8 16 34</rect></_>
    <_>
      <rect>
        0 0 16 8 2</rect></_>
    <_>
      <rect>
        0 0 16 8 6</rect></_>
    <_>
      <rect>
        0 0 16 8 7</rect></_>
    <_>
      <rect>
        0 0 16 8 8</rect></_>
    <_>
      <rect>
        0 0 16 8 9</rect></_>
    <_>
      <rect>
        0 0 16 8 12</rect></_>
    <_>
      <rect>
        0 0 16 8 13</rect></_>
    <_>
      <rect>
        0 0 16 8 15</rect></_>
    <_>
      <rect>
        0 0 16 8 19</rect></_>
    <_>
      <rect>
        0 0 16 8 22</rect></_>
    <_>
      <rect>
        0 0 16 8 25</rect></_>
    <_>
      <rect>
        0 0 16 8 27</rect></_>
    <_>
      <rect>
        0 0 16 8 29</rect></_>
    <_>
      <rect>
        0 0 16 8 30</rect></_>
    <_>
      <rect>
        0 0 16 8 32</rect></_>
    <_>
      <rect>
        0 4 16 8 0</rect></_>
    <_>
      <rect>
        0 4 16 8 1</rect></_>
    <_>
      <rect>
        0 4 16 8 4</rect></_>
    <_>
      <rect>
        0 4 16 8 9</rect></_>
    <_>
      <rect>
        0 4 16 8 10</rect></_>
    <_>
      <rect>
        0 4 16 8 11</rect></_>
    <_>
      <rect>
        0 4 16 8 12</rect></_>
    <_>
      <rect>
        0 4 16 8 13</rect></_>
    <_>
      <rect>
        0 4 16 8 15</rect></_>
    <_>
      <rect>
        0 4 16 8 23</rect></_>
    <_>
      <rect>
        0 4 16 8 25</rect></_>
    <_>
      <rect>
        0 4 16 8 27</rect></_>
    <_>
      <rect>
        0 8 16 8 0</rect></_>
    <_>
      <rect>
        0 8 16 8 4</rect></_>
    <_>
      <rect>
        0 8 16 8 11</rect></_>
    <_>
      <rect>
        0 8 16 8 16</rect></_>
    <_>
      <rect>
        0 8 16 8 20</rect></_>
    <_>
      <rect>
        0 8 16 8 22</rect></_>
    <_>
      <rect>
        0 8 16 8 27</rect></_>
    <_>
      <rect>
        0 8 16 8 31</rect></_>
    <_>
      <rect>
        0 8 16 8 32</rect></_>
    <_>
      <rect>
        0 8 16 8 34</rect></_>
    <_>
      <rect>
        0 12 16 8 6</rect></_>
    <_>
      <rect>
        0 12 16 8 8</rect></_>
    <_>
      <rect>
        0 12 16 8 15</rect></_>
    <_>
      <rect>
        0 12 16 8 22</rect></_>
    <_>
      <rect>
        0 12 16 8 24</rect></_>
    <_>
      <rect>
        0 12 16 8 29</rect></_>
    <_>
      <rect>
        0 12 16 8 33</rect></_>
    <_>
      <rect>
        0 12 16 8 35</rect></_>
    <_>
      <rect>
        0 16 16 8 1</rect></_>
    <_>
      <rect>
        0 16 16 8 3</rect></_>
    <_>
      <rect>
        0 16 16 8 8</rect></_>
    <_>
      <rect>
        0 16 16 8 13</rect></_>
    <_>
      <rect>
        0 16 16 8 17</rect></_>
    <_>
      <rect>
        0 16 16 8 18</rect></_>
    <_>
      <rect>
        0 16 16 8 19</rect></_>
    <_>
      <rect>
        0 16 16 8 21</rect></_>
    <_>
      <rect>
        0 16 16 8 23</rect></_>
    <_>
      <rect>
        0 16 16 8 24</rect></_>
    <_>
      <rect>
        0 16 16 8 26</rect></_>
    <_>
      <rect>
        0 16 16 8 28</rect></_>
    <_>
      <rect>
        0 16 16 8 29</rect></_>
    <_>
      <rect>
        0 16 16 8 33</rect></_>
    <_>
      <rect>
        0 16 16 8 34</rect></_>
    <_>
      <rect>
        0 0 16 16 9</rect></_>
    <_>
      <rect>
        0 0 16 16 12</rect></_>
    <_>
      <rect>
        0 0 16 16 15</rect></_>
    <_>
      <rect>
        0 0 16 16 18</rect></_>
    <_>
      <rect>
        0 0 16 16 19</rect></_>
    <_>
      <rect>
        0 0 16 16 20</rect></_>
    <_>
      <rect>
        0 0 16 16 21</rect></_>
    <_>
      <rect>
        0 0 16 16 22</rect></_>
    <_>
      <rect>
        0 0 16 16 24</rect></_>
    <_>
      <rect>
        0 0 16 16 25</rect></_>
    <_>
      <rect>
        0 0 16 16 26</rect></_>
    <_>
      <rect>
        0 0 16 16 30</rect></_>
    <_>
      <rect>
        0 0 16 16 31</rect></_>
    <_>
      <rect>
        0 0 16 16 32</rect></_>
    <_>
      <rect>
        0 0 16 16 33</rect></_>
    <_>
      <rect>
        0 0 16 16 34</rect></_></features></cascade>
</opencv_storage>
